/*
 * Copyright (c) 2025 EdgeImpulse Inc.
 *
 * Generated by Edge Impulse and licensed under the applicable Edge Impulse
 * Terms of Service. Community and Professional Terms of Service
 * (https://edgeimpulse.com/legal/terms-of-service) or Enterprise Terms of
 * Service (https://edgeimpulse.com/legal/enterprise-terms-of-service),
 * according to your product plan subscription (the “License”).
 *
 * This software, documentation and other associated files (collectively referred
 * to as the “Software”) is a single SDK variation generated by the Edge Impulse
 * platform and requires an active paid Edge Impulse subscription to use this
 * Software for any purpose.
 *
 * You may NOT use this Software unless you have an active Edge Impulse subscription
 * that meets the eligibility requirements for the applicable License, subject to
 * your full and continued compliance with the terms and conditions of the License,
 * including without limitation any usage restrictions under the applicable License.
 *
 * If you do not have an active Edge Impulse product plan subscription, or if use
 * of this Software exceeds the usage limitations of your Edge Impulse product plan
 * subscription, you are not permitted to use this Software and must immediately
 * delete and erase all copies of this Software within your control or possession.
 * Edge Impulse reserves all rights and remedies available to enforce its rights.
 *
 * Unless required by applicable law or agreed to in writing, the Software is
 * distributed on an "AS IS" BASIS, WITHOUT WARRANTIES OR CONDITIONS OF ANY KIND,
 * either express or implied. See the License for the specific language governing
 * permissions, disclaimers and limitations under the License.
 */
// Generated on: 27.03.2025 12:28:22

#include <stdio.h>
#include <stdlib.h>
#include "edge-impulse-sdk/tensorflow/lite/c/builtin_op_data.h"
#include "edge-impulse-sdk/tensorflow/lite/c/common.h"
#include "edge-impulse-sdk/tensorflow/lite/micro/micro_mutable_op_resolver.h"
#include "edge-impulse-sdk/porting/ei_classifier_porting.h"

#if EI_CLASSIFIER_PRINT_STATE
#if defined(__cplusplus) && EI_C_LINKAGE == 1
extern "C" {
    extern void ei_printf(const char *format, ...);
}
#else
extern void ei_printf(const char *format, ...);
#endif
#endif

#define STRINGIZE(x) #x
#define STRINGIZE_VALUE_OF(x) STRINGIZE(x)

#if defined (__GNUC__)  /* GNU compiler */
#define ALIGN(X) __attribute__((aligned(X)))
#define DEFINE_SECTION(x) __attribute__((section(x)))
#elif defined (_MSC_VER)
#define ALIGN(X) __declspec(align(X))
#elif defined (__TASKING__) /* TASKING Compiler */
#define ALIGN(X) __align(X)
#define DEFINE_SECTION(x) __attribute__((section(x)))
#elif defined (__ARMCC_VERSION) /* Arm Compiler */
#define ALIGN(X) __ALIGNED(x)
#define DEFINE_SECTION(x) __attribute__((section(x)))
#elif defined (__ICCARM__) /* IAR Compiler */
#define ALIGN(x) __attribute__((aligned(x)))
#define DEFINE_SECTION(x) __attribute__((section(x)))
#elif defined (__clang__) /* LLVM/Clang Compiler */
#define ALIGN(X) __ALIGNED(x)
#define DEFINE_SECTION(x) __attribute__((section(x)))
#endif

#if defined(EI_MODEL_SECTION) && (defined(__GNUC__) || defined(__clang__))
#define MODEL_SECTION(X) __attribute__((section(STRINGIZE_VALUE_OF(X))))
#else
#define MODEL_SECTION(X)
#endif

#ifndef EI_MAX_SCRATCH_BUFFER_COUNT
#ifndef CONFIG_IDF_TARGET_ESP32S3
#define EI_MAX_SCRATCH_BUFFER_COUNT 36
#else
#define EI_MAX_SCRATCH_BUFFER_COUNT 72
#endif // CONFIG_IDF_TARGET_ESP32S3
#endif // EI_MAX_SCRATCH_BUFFER_COUNT

#ifndef EI_MAX_OVERFLOW_BUFFER_COUNT
#define EI_MAX_OVERFLOW_BUFFER_COUNT 10
#endif // EI_MAX_OVERFLOW_BUFFER_COUNT

using namespace tflite;
using namespace tflite::ops;
using namespace tflite::ops::micro;

namespace {

#if defined(EI_CLASSIFIER_ALLOCATION_STATIC_HIMAX) || defined(EI_CLASSIFIER_ALLOCATION_STATIC_HIMAX_GNU)
constexpr int kTensorArenaSize = 280384;
#else
constexpr int kTensorArenaSize = 279360;
#endif

#if defined(EI_CLASSIFIER_ALLOCATION_STATIC)
#if defined (EI_TENSOR_ARENA_LOCATION)
uint8_t tensor_arena[kTensorArenaSize] ALIGN(16) DEFINE_SECTION(STRINGIZE_VALUE_OF(EI_TENSOR_ARENA_LOCATION));
#else
uint8_t tensor_arena[kTensorArenaSize] ALIGN(16);
#endif
#elif defined(EI_CLASSIFIER_ALLOCATION_STATIC_HIMAX)
#pragma Bss(".tensor_arena")
uint8_t tensor_arena[kTensorArenaSize] ALIGN(16);
#pragma Bss()
#elif defined(EI_CLASSIFIER_ALLOCATION_STATIC_HIMAX_GNU)
uint8_t tensor_arena[kTensorArenaSize] ALIGN(16) __attribute__((section(".tensor_arena")));
#else
#define EI_CLASSIFIER_ALLOCATION_HEAP 1
uint8_t* tensor_arena = NULL;
#endif

static uint8_t* tensor_boundary;
static uint8_t* current_location;

template <int SZ, class T> struct TfArray {
  int sz; T elem[SZ];
};

enum used_operators_e {
  OP_CONV_2D, OP_DEPTHWISE_CONV_2D, OP_ADD, OP_PAD, OP_FULLY_CONNECTED, OP_RESHAPE, OP_SOFTMAX,  OP_LAST
};

struct TensorInfo_t { // subset of TfLiteTensor used for initialization from constant memory
  TfLiteAllocationType allocation_type;
  TfLiteType type;
  void* data;
  TfLiteIntArray* dims;
  size_t bytes;
  TfLiteQuantization quantization;
};

typedef struct {
  TfLiteTensor tensor;
  int16_t index;
} TfLiteTensorWithIndex;

typedef struct {
  TfLiteEvalTensor tensor;
  int16_t index;
} TfLiteEvalTensorWithIndex;

TfLiteContext ctx{};
static const int MAX_TFL_TENSOR_COUNT = 4;
static TfLiteTensorWithIndex tflTensors[MAX_TFL_TENSOR_COUNT];
static const int MAX_TFL_EVAL_COUNT = 4;
static TfLiteEvalTensorWithIndex tflEvalTensors[MAX_TFL_EVAL_COUNT];
TfLiteRegistration registrations[OP_LAST];

namespace g0 {
const TfArray<4, int> tensor_dimension0 = { 4, { 1,96,96,3 } };
const TfArray<1, float> quant0_scale = { 1, { 0.0039215688593685627, } };
const TfArray<1, int> quant0_zero = { 1, { -128 } };
const TfLiteAffineQuantization quant0 = { (TfLiteFloatArray*)&quant0_scale, (TfLiteIntArray*)&quant0_zero, 0 };
const MODEL_SECTION(EI_MODEL_SECTION) ALIGN(16) int32_t tensor_data1[4*2] = { 
  0, 0, 
  0, 1, 
  0, 1, 
  0, 0, 
};
const TfArray<2, int> tensor_dimension1 = { 2, { 4,2 } };
const MODEL_SECTION(EI_MODEL_SECTION) ALIGN(8) int32_t tensor_data2[2] = { -1, 72, };
const TfArray<1, int> tensor_dimension2 = { 1, { 2 } };
const MODEL_SECTION(EI_MODEL_SECTION) ALIGN(16) int32_t tensor_data3[7] = { 220, -418, -68, 129, -80, -93, 362, };
const TfArray<1, int> tensor_dimension3 = { 1, { 7 } };
const TfArray<1, float> quant3_scale = { 1, { 8.6286403529811651e-05, } };
const TfArray<1, int> quant3_zero = { 1, { 0 } };
const TfLiteAffineQuantization quant3 = { (TfLiteFloatArray*)&quant3_scale, (TfLiteIntArray*)&quant3_zero, 0 };
const MODEL_SECTION(EI_MODEL_SECTION) ALIGN(16) int8_t tensor_data4[7*72] = { 
  87, -52, 69, 48, -30, -2, 85, 78, 30, -14, 55, -19, 79, 7, 43, 47, 103, 102, 59, 21, 32, -45, 7, -5, 90, -20, -35, 116, -79, -95, 92, 19, -56, -83, -99, 102, 84, 18, -36, 53, -27, -124, -74, 34, 65, 60, 7, -57, 0, -66, 35, -19, -78, -25, -94, -16, 5, -87, -17, 74, -92, -4, -45, -82, -70, 7, 107, -47, -45, -71, -98, 100, 
  62, -96, 14, -1, 30, -38, 47, -82, 118, -8, -87, -54, -71, 67, 92, 28, -27, 14, 59, -61, 52, 41, -17, -14, -37, 4, 88, 35, 51, -46, 15, -25, -64, -20, 49, -57, -75, 83, 98, 3, 59, 32, 1, 121, -32, -43, 103, 26, 64, 60, 37, -71, 75, -23, 74, 21, 40, 5, 12, 30, -98, -74, -117, -122, -19, -88, -30, -41, 53, -67, -39, -74, 
  -21, -55, 101, 85, 39, -70, 65, 76, -77, 119, -111, -25, 20, -36, -3, -85, -20, -4, 94, -115, -31, 95, -91, -1, 17, -3, 64, -22, -96, 2, 16, 41, -13, -51, -14, -55, 66, -70, -26, 93, -20, 17, -25, -56, 95, -68, 12, 54, -78, 88, 19, -75, 71, -19, 70, 67, 103, 101, 25, -1, -33, -90, 80, -90, 100, 2, 100, 37, 45, 20, 60, -2, 
  56, 22, -32, 3, 2, -74, 25, -42, -122, 37, 29, -5, 14, -2, -88, 50, -67, 78, -53, 63, 31, 19, 92, -18, -33, -80, -62, -29, 53, -39, 50, 40, -74, 32, -51, -7, 72, 37, 106, 112, 97, -21, -46, -90, 85, 88, -98, 32, -106, 83, -69, 69, 57, -11, 15, -91, -69, 109, -45, 55, -73, 71, -119, -45, -101, 72, 68, -97, 67, 3, 61, -124, 
  -46, 60, -31, 98, 99, -91, -53, -52, -36, 99, 78, -6, -53, -30, -54, -50, -51, 34, 105, 20, -94, 44, -96, 9, -26, 79, -81, 12, -76, 94, -48, -70, -30, -34, -96, -115, -61, 41, -127, 62, -42, 24, 1, -68, 19, 67, -118, 67, -13, 41, 80, 72, 44, 33, -64, 94, -31, -54, -74, 90, 78, 89, -42, 0, -72, 25, -33, -113, -23, 68, -16, -23, 
  43, -52, -16, 70, -49, 82, 88, 38, -113, -73, 106, -30, -87, 22, -4, -110, -105, -7, 14, -39, 73, 89, -92, 8, 33, -74, 106, 76, 41, -36, -70, -23, -5, -38, -38, -60, 1, 127, 72, -37, 24, -1, 60, -24, 13, 51, 4, -91, -15, 113, 0, -118, 47, -80, -40, 57, 77, 29, 79, -33, -18, -104, -49, -127, -4, 122, -48, 71, 20, -17, -50, -16, 
  108, -31, -26, 30, -75, -58, -39, 6, 45, -87, 15, -122, -28, 6, 6, 80, 10, -28, 62, -79, -113, 120, 9, 80, 15, -71, -98, -83, -121, 9, -22, 29, -109, 19, -110, 44, -87, 59, 9, -62, -16, -88, 22, -75, 35, -28, -12, -98, 36, -118, 58, -96, 40, 118, 76, 92, 68, -18, -23, 52, 52, 44, 65, -50, 33, -95, 51, -75, -58, 72, 99, -82, 
};
const TfArray<2, int> tensor_dimension4 = { 2, { 7,72 } };
const TfArray<1, float> quant4_scale = { 1, { 0.0025119283236563206, } };
const TfArray<1, int> quant4_zero = { 1, { 0 } };
const TfLiteAffineQuantization quant4 = { (TfLiteFloatArray*)&quant4_scale, (TfLiteIntArray*)&quant4_zero, 0 };
const MODEL_SECTION(EI_MODEL_SECTION) ALIGN(16) int32_t tensor_data5[8] = { 188, 139, -268, -321, -274, 93, 66, 352, };
const TfArray<1, int> tensor_dimension5 = { 1, { 8 } };
const TfArray<1, float> quant5_scale = { 1, { 2.3753242203383707e-05, } };
const TfArray<1, int> quant5_zero = { 1, { 0 } };
const TfLiteAffineQuantization quant5 = { (TfLiteFloatArray*)&quant5_scale, (TfLiteIntArray*)&quant5_zero, 0 };
const MODEL_SECTION(EI_MODEL_SECTION) ALIGN(16) int8_t tensor_data6[8*1280] = { 
  7, 52, -34, -26, -12, 11, 9, 0, 54, 12, 59, -87, 6, -88, -21, -6, 46, 28, 15, -65, -14, 20, 56, -60, -21, -37, -14, -50, -66, -21, 31, -45, 49, 14, 65, 57, 10, 7, 38, 72, -55, 25, -7, 35, 3, 48, 45, 42, 24, -17, 19, 73, -1, -35, -18, 22, -26, -68, -24, -54, 50, -61, -42, -82, -15, -40, 73, -51, -29, 35, 56, -12, -71, -33, 15, 38, -17, 9, 38, -39, -28, 15, 46, 52, -46, -1, 91, -54, -5, 31, -43, -8, 69, 78, 54, -41, -51, -54, -19, 34, 6, 37, 15, -15, 29, 28, -43, 64, -9, 38, 41, 34, 69, -86, -58, 48, -16, 20, 7, 58, -20, -35, 25, 22, -32, 73, 24, -48, 50, 61, -65, 13, -42, -28, 56, 3, -59, -7, 69, 28, 57, -4, 44, 7, -63, 66, -25, -30, -30, -10, 16, -58, -37, -38, -32, 47, 12, 44, -49, -28, 79, 27, 12, -9, -49, 68, -14, -60, -78, -85, 68, 92, 57, -61, 74, -2, 25, -8, 36, 56, -27, -23, 71, -25, 43, 0, 61, 29, -16, 76, -20, 42, 0, 16, -18, -30, -3, -67, -56, -55, -31, -55, -49, -14, 64, -11, 75, 21, -33, -44, -26, 39, -31, -7, 52, 18, -44, 19, 44, 48, 62, -67, 7, -30, 22, 32, 41, 5, -21, 29, 37, 36, 74, -56, 41, 25, -45, 64, 21, -5, -48, 68, 49, 75, 49, 52, 43, -3, -67, 11, 25, 8, 45, 51, 4, 69, 15, -33, 29, -64, -2, 7, 1, 44, 49, 4, -3, -12, 45, 48, 56, -14, 24, -72, 9, -82, 101, 49, 44, 21, 48, 30, -48, 8, -28, 5, -55, -51, 56, 65, 14, -18, -72, 35, 55, 11, 31, 4, 45, 72, 70, 12, 43, 63, -59, -11, 5, 43, 7, 55, 52, -50, -46, 57, -68, -33, -10, 22, -14, -39, 35, 43, 18, -14, 11, 56, -58, -51, 64, -63, 12, -19, -4, -79, -3, -76, -4, 28, 8, 64, -32, 39, 45, 29, -37, 49, 46, 21, 84, -12, 56, -71, 23, 32, 58, 16, 50, -17, 6, -66, -15, -54, 15, 12, -86, 39, 94, -49, 4, -46, 28, -1, 19, -66, -16, 9, 4, -6, -57, -59, 23, 25, 18, 24, -61, -68, 24, -29, -62, -59, -44, 8, 53, -55, -37, -16, 38, 2, -36, -20, -29, -5, 45, -25, 27, 38, 68, 51, 39, -13, 24, -8, -21, -91, -43, -7, 8, 4, -3, -8, -52, 70, 38, 36, 3, -11, -68, -49, -31, -52, 34, -1, 16, 5, 5, 54, -28, -74, 14, -17, 43, 14, 44, 11, -39, 59, -59, -3, -2, 53, -14, -43, -21, 6, 3, 3, -62, 38, 77, 10, -63, -26, -27, 78, 19, 9, -34, 52, -35, -32, 13, 38, 0, -44, 2, -3, 3, -17, 24, 54, 28, 38, -66, -85, 9, -2, -56, 26, -55, 45, 2, -22, -26, -6, -70, -33, 19, -106, -46, -78, 12, 57, 62, 41, 39, -36, 32, -33, 53, -32, -47, -8, 28, -13, 13, 62, -23, -25, 59, 34, -31, -37, 57, -47, -4, 2, 15, -13, 58, -36, 4, -6, 46, 43, 48, -68, 65, -57, -25, 117, 33, -9, -39, -8, -25, -44, 2, -66, -89, -14, -74, -37, -54, -23, -54, 63, -4, -15, 15, 80, 26, -20, -78, 47, 39, 18, 23, 46, -8, -63, -61, 25, -33, 12, -11, 27, -17, -89, 3, 32, -4, -13, -7, -36, 44, 30, -16, -68, -12, 38, 21, 47, -15, -13, -65, 37, -72, -7, -30, 5, -34, 71, 11, 34, 14, 62, -17, -36, 52, -20, -4, -2, 21, -34, 14, 76, 69, 11, -46, -33, -57, -9, 27, -59, 14, 48, 26, 30, -20, 54, 36, -54, -31, 23, 16, 45, -28, -44, 17, 94, 40, 35, -12, -46, 56, -10, -59, 67, -17, 15, 64, 42, -37, 5, 6, -32, 52, -50, 66, 25, 20, 44, 3, 29, -25, -44, 46, -18, -40, -59, 38, -16, -48, 9, 34, 8, 24, 37, 72, -16, -44, 20, -71, 67, -16, 23, -17, 41, 29, -63, -45, 77, -32, -45, -25, -64, 55, -4, 21, -4, 38, 38, 46, -6, -98, 28, -13, -10, 1, 0, -30, 73, 22, 38, 31, 10, 30, -14, -23, 3, -25, -23, 55, 85, 84, -19, 2, 98, 55, -76, 25, 17, 1, 48, -33, 87, 58, -70, -20, 56, -28, 78, -22, 8, 33, -81, -25, -46, -53, -63, 48, 2, -32, -52, 48, 16, -50, -64, 9, 22, -50, -1, -26, 20, 45, -51, 10, 91, 1, -5, 52, -17, -45, 6, -55, -45, 14, -29, 59, -25, 27, 45, 25, 10, -41, -62, -43, 20, 2, -24, 11, 80, 26, 8, 17, 19, -49, -20, -36, 36, -63, 32, 30, -54, -35, -16, 39, 0, -20, 5, 31, -21, -38, 27, 50, 20, -39, -9, 27, -3, 61, 24, -31, 24, -31, -15, -43, 39, 75, -79, 24, 48, -11, 47, -39, -111, -42, 44, -16, -49, 29, -9, 79, 60, -40, 54, -60, 69, -29, -42, -12, 37, -64, -35, 44, -46, -5, -27, -96, -59, 38, -5, 103, -45, -10, 23, -13, -61, 35, -39, 63, -4, 48, 35, 23, 45, 17, -3, -38, -25, 10, 40, 18, -59, -21, -29, -32, -49, -18, -39, 46, 21, -62, -15, 69, 34, -56, -13, -25, 38, -65, 53, -6, 13, 16, 33, 53, 44, 19, 65, 53, 42, -78, -65, 22, -36, -10, 31, -9, -50, 23, -12, -52, -40, 64, 35, -39, -3, 50, -11, -5, 35, -29, 58, 15, 28, 55, 7, 21, 3, -33, 45, 31, -42, 60, -64, -44, 41, 22, 13, -73, -9, 88, -43, 13, 8, 37, -1, -71, -9, 26, -62, 68, -3, -53, 25, -41, 1, -31, 7, -79, -56, 21, 53, 41, -78, -21, 10, 28, 47, 24, -6, -35, -46, -1, 34, -11, -54, -49, -2, -40, 22, -70, 45, 64, -11, -27, 69, -110, -33, -10, 78, 53, 16, -19, -51, 18, -51, -58, -35, 32, -30, 41, -26, -44, 50, -13, 35, -71, 10, 31, -19, 78, 18, -33, 38, -52, -16, 16, 19, 21, 9, 33, -31, 76, 35, 61, 38, -9, -11, -22, 59, -35, -23, -47, 34, 65, 0, 29, 55, 54, -22, 9, -110, 42, -61, 63, -21, 51, 14, -39, 71, 8, 19, 51, -24, -31, 13, -103, 24, -56, -3, 23, -8, -35, 34, -10, 44, 61, 45, 53, -30, 45, -31, 66, -16, -3, -19, -7, 32, -73, -72, 2, -43, 23, -13, -49, 34, -64, 6, -40, -3, -17, 47, 25, -1, 47, -43, -7, -47, -58, -22, 39, -51, -66, -30, -1, -9, 55, -58, -83, 60, -54, -10, -33, -44, 18, -4, -57, -36, -55, -51, -14, 18, -20, 5, -51, 10, -1, 29, -44, -48, 1, -28, 9, 48, 35, -59, 40, -53, -69, 47, -20, 75, -10, 24, -51, 60, -29, -34, -38, 44, -30, -60, -60, -52, 31, 68, 51, 34, 19, 54, -61, 42, -31, -43, 60, -14, -22, 32, 49, 65, 7, -31, -51, 15, -29, -47, 72, 25, 31, -50, -38, 10, -70, 6, 11, 5, -18, 22, 64, 21, -15, -52, 15, -24, 33, 33, 13, 26, -11, -54, -5, 59, 51, 28, -33, 10, 7, -54, -35, -45, -18, -15, -46, 5, 15, 67, -23, 51, -42, -61, 11, 18, -48, -9, 7, -53, 46, 12, -33, -37, 2, 28, -70, -7, -73, -7, 8, -63, -71, -32, 31, 14, 34, 68, -77, -71, 2, 66, 28, 11, 11, 14, 25, -16, -18, 1, -50, 11, 44, 33, -52, 28, -56, 55, -6, 46, -3, -10, 
  -45, -1, 24, -41, 33, 3, -49, -13, -37, 75, 19, -41, -5, 5, 19, -13, 3, 64, -28, 22, 32, -66, -35, -24, 11, -20, -46, -46, 14, -80, -70, 43, 29, 10, 19, -9, -61, 71, -70, -34, -39, 10, 12, -63, 49, 22, 35, 26, 37, -11, 39, 68, -9, -101, 43, 19, 7, -53, -71, -37, 21, 11, 26, -4, 102, -17, 11, -33, -32, -3, 37, 35, 33, -68, 40, 11, 43, -54, 86, -73, 6, 14, -55, 42, -32, 65, 1, 53, -17, -57, 53, -37, 20, -63, -45, -14, -8, 62, 13, 10, 6, 13, 30, -15, -10, -58, -54, -45, 67, 22, -21, 20, -42, 17, 73, 68, 2, -36, -30, -69, 46, -17, -25, 28, -56, 92, 66, 77, 28, 19, -3, 39, 27, -3, 6, -68, -31, 33, 28, 24, -21, -15, 0, 29, 35, -54, 6, 66, 23, 43, 55, -29, -30, -43, -43, -3, -42, -11, -2, -6, -43, 8, -68, -75, 8, -15, -53, 54, -26, 56, 2, -82, -62, -65, -25, 12, -20, 56, -19, 31, 20, 10, -26, 54, -8, -52, -5, 47, -42, 40, -58, 9, 2, 31, 61, -108, -53, 15, 73, 85, 79, -50, 13, -39, 39, 9, 53, -13, 30, 52, -11, 62, 48, -20, 34, -15, -37, -53, 67, -20, -21, 54, -61, 35, 8, -8, -88, -15, 70, -26, 37, 34, 33, -1, -21, -68, 22, 11, -53, 44, -10, -63, 32, 57, 63, 34, -47, 4, 7, 45, 56, 39, -57, -47, 55, 23, -18, -42, -35, -1, -1, -59, -24, 45, 41, 54, 38, 12, 29, 34, -54, -20, 77, -34, -46, -38, 42, 40, 14, 16, 12, 29, 68, -51, 6, -46, 63, -53, -76, -34, 1, 14, 58, 66, -49, -47, -3, -34, -65, -5, 6, -52, 4, 6, 59, -50, 42, 13, -31, -84, -51, 43, -32, -33, 24, 0, 25, 73, -19, 28, -62, 11, -13, 34, 21, 17, -6, 39, -71, 55, -52, -43, -41, -23, -37, 34, 17, -10, -87, -33, 93, -38, 52, -19, -47, 20, 65, -59, -20, -22, -39, -69, 33, 78, 4, -13, 68, 20, 55, -14, 52, -27, -48, 49, 21, 67, -115, 9, 67, 72, -3, -82, 107, 5, 63, -14, 16, 24, -6, -24, 24, -18, -8, -64, -22, 12, 26, -15, 26, -64, -68, 52, 70, -13, -25, -17, 13, 55, -58, -49, 2, -33, -4, 39, 87, 65, -18, 18, -55, -37, -7, 8, 30, -70, 10, 16, 56, -84, -31, -17, -31, -16, -36, -17, 60, 62, -9, 24, -1, -49, 7, -40, 21, -20, 0, 37, 65, 17, 16, 15, -27, 34, -56, -39, 54, 64, -19, 87, -27, 9, 67, -68, 41, -65, -11, 21, -17, -9, -16, 29, 57, -1, 47, 5, -27, -42, -79, -73, 29, -52, 27, -29, 39, 64, 74, -31, 0, -42, -12, -36, -82, 36, 3, -8, -105, 26, -12, 8, 29, -6, 48, -57, 32, 31, 12, -60, 33, 32, 41, -61, 65, -36, 107, 53, -20, 13, 7, 23, 5, 48, -59, -13, -11, 24, 9, 68, -17, 1, -1, 44, 27, -18, 39, 8, -10, -8, 22, -6, 48, -1, -74, -2, 41, 52, -13, -53, -36, 48, -9, 6, 33, -72, 6, -64, -5, 31, -50, 48, -36, 19, -85, -85, 83, 18, 78, -3, 17, 19, -90, 25, -76, -34, 81, -36, -54, -38, 15, 35, -41, -47, -33, 72, -18, 60, 35, 78, -33, -2, 16, -47, 50, 5, -8, 24, 75, -31, -29, 28, -3, -42, 22, -57, -21, 61, -30, 64, -5, -31, -26, 26, -6, 41, 56, 53, 19, -4, 64, -49, 52, -36, -69, 38, -14, -33, 30, -38, 32, -20, 31, 25, 23, 50, -8, 37, 39, 14, 57, -20, -13, -70, -3, -31, -30, -4, -38, -17, 28, 39, -65, -64, -17, -66, -54, 24, -56, 43, -45, 16, 20, -40, -35, -63, -36, -11, 8, -45, -64, 7, 34, -14, 5, -42, -8, -9, 29, 40, -39, 22, -34, 35, 9, -64, -10, 11, -10, -26, 33, -49, -49, -24, -55, -74, -5, -42, 6, 23, -6, 8, -46, 91, -39, -85, 4, -18, 50, 0, 87, 84, 34, -36, 18, 57, -37, -44, 9, -79, -7, 44, 64, -41, -3, 35, 32, 31, 49, -66, -77, 62, 51, 6, -25, -22, 20, 38, 3, 42, -54, -61, -72, 31, -23, -59, -8, 38, -35, -4, 50, -29, 8, -9, 41, 17, -53, -34, 52, -35, 55, -39, -37, 20, 14, 64, -61, -30, -44, -48, -2, 120, -4, -70, 15, 35, -37, 27, -1, 41, -68, 41, -77, -8, 16, -101, -15, -45, -38, 61, -49, 62, -62, 16, -14, -61, -6, -58, 19, 40, 68, -18, -63, 53, -2, -55, -88, -29, -53, -60, -50, 45, -48, 56, 56, 16, 33, 32, 10, -34, -19, -15, 57, -11, 22, -25, -12, -15, -4, -17, -46, -9, 1, -53, 64, -18, -21, 18, -27, -30, 59, 6, 0, -5, -82, -66, 62, 85, -80, 30, -20, -30, -41, -3, 28, 49, 10, -17, 57, -74, 8, -62, -31, 23, 19, -11, -43, 64, -41, -31, 5, -21, 58, 3, 28, 41, -39, 36, 22, 51, -4, 50, 43, -16, -44, -52, 59, -19, -61, 7, 48, 17, 24, 33, -77, 17, 37, 20, 82, -62, 20, -78, -9, -27, -36, 66, -25, 34, 11, 15, -6, -25, -35, -70, -56, -40, -35, 26, 37, 80, -26, 55, 5, -8, 42, 23, 45, -31, -47, -17, -31, -75, -14, 1, 116, 53, 54, -8, 61, 40, -45, 41, 75, 14, -61, -16, 67, -67, 92, 25, 35, -53, -3, -56, 32, -28, -84, 32, 9, 40, 26, 23, -42, -48, -33, -62, 18, 37, 0, 28, 48, -40, -45, 64, 42, 37, 20, 67, 57, 46, -47, 4, 53, 1, -6, -37, 59, -4, -52, -34, -59, 84, 69, 47, 58, -47, 2, -18, -37, -44, -4, 45, 69, -5, -74, 69, -30, -37, -85, 18, 67, 33, -34, -55, 20, -62, 16, 20, -34, -25, 52, -32, -41, 26, 64, 41, -38, -56, 7, 24, 24, 45, -55, -57, -36, -14, -7, -54, -3, -4, -13, -22, 40, 37, -61, -56, -46, -68, -20, 20, -44, 3, -78, 20, 5, -37, -4, 17, 68, -38, -69, 73, -34, -59, 42, -24, 40, -28, 9, 72, -23, 8, -18, 15, 45, -62, -30, 35, 19, 22, 44, 17, -48, 93, -60, -92, 57, -18, 46, 41, -28, 81, 47, 60, 22, 49, 18, -17, -26, -55, 7, -58, 25, 37, 35, -50, 14, -50, -49, -59, -32, -1, -44, 64, 58, 15, -55, 47, 7, 63, 16, -32, 40, -36, 24, -14, -28, -82, 58, -43, -30, 12, 47, 37, 10, 29, -20, -27, -32, 33, 36, 73, -77, -14, -23, -67, -108, -70, -35, -44, 36, 56, -79, -42, -57, -50, -27, 13, 46, -17, 19, 53, -8, 64, 49, -22, 14, -52, 41, 17, -27, -1, -30, 43, 77, 3, -110, -43, 12, 46, 10, -39, -45, 34, -8, 5, -14, 55, -41, -55, -75, -18, 31, -64, -51, 8, 4, -6, 59, 34, 39, 1, 17, -95, -5, -23, 22, 71, 23, -37, 48, 21, 39, 2, 48, 72, 40, -2, -28, -24, 50, -25, 64, 28, -70, -66, 47, -21, 30, -5, -16, 83, -11, 22, -32, 80, -17, -1, -34, -52, 11, 17, -9, -62, -72, 36, -25, 75, 14, -29, -57, 63, 29, 49, -63, 23, -29, -4, -20, 15, 37, -35, -52, 40, 18, 28, -21, -11, 9, 29, 27, 22, 28, 48, -67, 2, 38, -54, -18, -19, 3, 26, -48, -52, -40, -20, -42, -48, 18, -34, -23, 46, 16, 61, 
  17, -47, -58, 37, 23, 39, 52, -39, -40, 47, 40, 2, 52, -53, -46, -27, -27, -5, -12, -43, -5, 67, -62, 0, 9, 53, -59, -18, 33, 18, 3, 4, -41, 31, -20, -100, 40, -4, 69, -71, -14, 16, -60, 72, 77, -29, -23, 44, 49, 36, -38, -40, -21, 79, 14, -27, 31, -19, 5, 20, -75, 41, -33, -11, -37, -46, -11, 48, -41, 61, -38, 12, 10, -51, 20, -49, 42, -20, -7, -28, -50, -18, 49, 14, -5, 15, -49, 54, 62, 18, -5, 71, 23, -58, -54, -3, -19, 22, 14, 32, 30, -9, -40, 9, 73, -60, -28, -10, 16, -49, 65, 34, -29, -31, 20, 8, 49, 41, 30, -16, 43, -62, -19, -70, -6, -41, 16, -3, -40, 111, 25, -19, -16, 37, -40, -22, -63, 73, -67, -54, -84, 56, -78, -54, -44, -22, -40, -38, 35, 19, 22, 34, 57, -15, -17, -41, -18, 3, 48, 68, -79, -25, -61, -50, -52, 50, 20, 45, 14, -33, -33, 14, 6, -22, -6, 9, -45, -78, -81, -67, 64, -22, -8, 42, 24, -22, -22, -19, -29, -57, -15, 67, 54, -3, 34, -43, 29, -17, -8, 12, 46, 20, 61, 14, -44, -13, 4, 46, -65, 27, -64, 40, 43, -7, 31, -36, -8, -42, -7, -13, 8, 1, 39, -57, -41, -73, -40, 47, 80, 40, 53, 72, -10, 8, -7, 34, -18, -47, -53, 5, 11, 1, 43, -6, 40, 51, 64, -48, -41, 50, 6, 56, 41, 26, 69, -45, 63, 49, -54, 40, 9, -29, -79, 18, 20, -47, -30, -32, 57, -14, 40, 32, -69, -17, 36, -39, 22, -2, -39, 35, 9, -26, -32, 21, -55, -49, 91, 63, -1, 24, -52, 44, -69, 34, -51, -66, 14, -61, -78, -73, 12, 62, -16, -6, -40, -4, 16, 28, -13, 48, 44, -63, 2, 40, 0, -59, 10, 19, -24, 13, 37, 31, -31, 5, -39, -3, 10, 42, -5, 32, -13, 55, -33, 62, -40, -29, 4, -106, 64, 72, -40, 13, -20, -18, -19, 45, 34, -22, 15, -11, 22, 40, 41, 23, -66, -47, 58, 15, -33, 50, -31, -14, -78, 2, 53, -23, 38, 5, -23, -34, 64, -32, -11, -58, -33, 68, 3, -46, 20, 59, -37, -23, -39, 49, -30, 15, 64, -59, 95, 22, 43, -75, -49, -20, 21, 67, 1, -5, -72, -19, -65, -67, -28, -23, 14, -60, -10, -1, -65, -74, 22, -71, -24, -2, 2, -60, 73, -75, -65, 51, 39, -49, -4, 43, 50, -94, -63, 18, -25, 46, -25, 25, -30, 15, -20, -33, -20, 58, 33, -22, -37, 51, 27, 34, 20, -62, -65, 6, -10, 59, -65, 17, 56, -28, -44, 51, 42, -46, 48, 18, 60, 7, 54, 0, -38, 4, -27, 25, 91, -4, -86, 49, -4, 41, -73, 28, -33, 3, 9, 28, -33, -3, -27, 96, 43, -66, -53, -42, -87, 9, 60, -23, -77, 77, -89, 6, -3, -10, 16, -68, -40, -13, 16, -33, 21, -52, -26, -33, 53, 6, 16, -4, -94, 32, 31, 43, -62, -63, 49, -90, -19, -72, 62, -66, -52, -14, 22, 52, -34, 81, -15, -10, 32, 50, -42, -71, -56, 16, 9, -1, 58, 31, 24, 87, -40, 81, 25, -20, 44, -7, 63, 46, 57, 2, -16, 31, 60, 53, 50, 24, -66, -14, 8, 47, -28, -57, 29, -51, 2, 39, -49, 49, 33, -85, 53, -54, 6, 90, 50, -77, 28, -48, -40, -6, 6, -18, 31, 14, 51, -5, -8, 1, 65, -19, -24, -18, -82, -45, 29, -30, -2, -38, -43, -6, 15, -49, 48, -49, -24, 21, -50, -76, 52, 34, -47, 9, 44, 62, 17, 37, 63, 26, 24, -83, 51, 38, 63, -54, 49, 27, 11, 77, -16, 34, 49, 46, 18, -8, -76, -39, -51, 40, 31, 5, 27, 55, 49, 43, 45, -51, 42, -30, 53, -11, -25, -22, 30, -27, -62, -48, -12, 58, 13, 72, -9, 34, 40, -27, 46, 29, 22, -40, 3, 58, -38, 38, -18, -25, 62, -16, 34, 50, 41, 15, -44, 51, -32, 34, -71, 70, 53, -63, -20, -61, -29, 14, 36, -79, -35, -9, 7, -47, -58, 54, -25, 60, 22, 49, -51, 5, -31, 76, -45, 70, 51, 43, -58, -40, -11, 31, 64, -32, -3, -47, 13, -6, -22, -62, -56, -28, -41, -37, 59, 48, 47, 47, 2, 65, 12, -29, -35, 44, -20, -11, 2, -61, 53, -78, -48, -32, 7, -94, 33, 37, -38, 28, -17, -8, -7, -1, -4, -17, -24, -66, -34, 32, -63, -47, -1, -19, 51, 52, 30, -67, -2, 11, -10, 9, -1, -81, 10, -6, 8, 40, 80, 54, 8, -18, 10, -36, 6, -18, -45, 56, 11, -43, 35, -26, 1, -1, 46, -25, 4, -45, -42, -12, -14, 30, 43, -44, 1, -16, 12, -16, 75, 34, 1, -17, -4, 41, 39, 28, -3, 23, 41, -52, 65, -83, -24, -8, 39, 46, -30, -1, -27, 6, -9, -52, -13, -2, 39, -1, -43, -26, -45, -29, 12, 75, 49, 76, 83, 56, 50, -34, -11, -9, 3, -64, -13, 61, -75, -29, -77, -55, -71, -16, 29, 79, 40, -19, -5, 54, 23, -23, 1, -15, -76, 55, -20, -30, -4, 111, 14, 7, -19, 44, -9, 5, -65, 54, -6, -29, 27, 78, 36, 47, -47, 13, 12, -70, 32, 19, 21, -65, -36, 26, -52, -6, -1, 9, 5, 0, 37, 3, 60, -19, -58, -46, 41, 12, 4, -11, 17, 46, 9, -35, -17, 17, 50, 22, 76, -3, -12, -60, -40, 56, -38, -57, -63, 24, -62, 13, -14, -53, -35, 50, 65, -9, 34, 6, 70, -50, -62, -14, 41, -4, -21, 22, 22, -40, -24, -58, -65, 5, -18, -9, 87, 37, -73, -45, 30, 45, -53, 24, 37, 49, -7, -63, -21, 3, -60, 88, 51, 72, -31, 8, 57, -10, -74, 53, 18, 59, -6, 46, -93, 1, -41, -81, -27, 83, 57, 52, 22, 51, -35, -32, -23, -73, 34, -15, 32, -23, 0, 21, -40, 12, 36, 4, -4, 23, -22, -35, -8, 68, 10, -23, -8, 38, -19, -63, 18, -72, 39, 37, 35, -55, -41, -13, 1, 42, -58, -23, 51, -77, 19, 43, -59, 0, 39, -63, 4, 24, -81, -78, -52, -1, 9, 27, 39, -30, 68, 22, -42, -105, 9, 17, 0, -4, 40, -99, -17, 77, -45, 19, -17, 19, -16, 65, 42, -13, 17, 0, 32, 45, 38, -30, -66, -42, 74, -124, -69, -44, -39, 70, -83, 39, 1, 7, 82, 76, 75, -41, 60, -69, 14, -44, 63, 3, 37, -41, -51, 12, -76, -49, -20, -30, -3, -1, -4, 40, 25, 89, -45, -3, 12, -21, -22, -52, -9, 0, 3, 43, -11, -37, -71, 24, -37, 38, -32, -53, 9, 5, 50, 25, -78, 44, -28, -38, -8, 23, -15, -1, 50, 16, -19, -7, -41, -14, -47, 38, 54, 76, -26, 40, 23, 41, -50, 6, -46, 31, 43, 37, -8, 48, -85, 22, -50, -17, -32, -61, -29, -42, 37, -18, 86, -18, -24, 50, 19, 37, 74, 37, 2, 19, 72, -78, 34, 17, -48, -33, 26, -76, -15, -6, -14, 26, 38, -43, 16, -5, -15, -50, -26, 55, -90, -27, -31, -12, -68, 21, -49, -50, 33, 18, -42, -55, 46, 54, -67, 29, 56, -44, 0, -31, -74, -8, 23, 28, 56, 30, 22, 21, -62, 27, -20, 33, 21, 25, 51, 17, -73, 18, -59, 49, 0, 49, 19, -10, 37, 39, -54, 27, 20, -32, 36, 29, 62, -35, -47, -40, -41, 26, -25, 3, -34, 6, 44, 89, -40, -16, 
  63, 50, 18, 11, -1, 13, 6, -36, 34, 14, 34, -61, -3, 63, -12, -81, -68, 54, 33, -69, 16, 53, -38, -92, -54, 58, 18, -34, 8, 21, 15, 3, 66, 56, 30, 11, 15, 14, -59, 53, 30, -76, 24, -23, 0, 49, 30, -71, 47, -4, -56, 7, 64, -69, 14, 18, 28, 10, -25, 26, -21, -6, 38, -25, 40, -14, 59, 23, 48, -38, -83, -2, -78, 56, 67, 6, -2, 9, -16, -37, 49, 5, -5, -57, -51, 68, 58, 22, -84, 38, -5, -30, -76, -104, -48, -22, 13, -68, 42, -54, -92, -77, -27, 31, -58, -12, 18, -53, 48, 25, -48, -11, 10, 8, -82, 9, -58, 5, -56, 7, 20, 6, -1, -11, -9, -43, 8, -1, -18, -53, 54, 41, -54, -51, -65, 49, -18, 37, 44, -50, 2, 6, 28, -42, -26, -83, 23, -62, -31, 2, -52, -66, 18, -41, -2, -83, 56, -28, -45, 51, -27, 16, 32, -39, -52, 58, -82, 23, -61, -67, -52, -4, -10, -14, -4, -14, 50, -42, -58, 24, -3, -57, -5, -6, -52, -62, 59, 14, -50, -45, -94, 51, 4, 52, 1, 63, -31, 39, 7, 20, 14, 45, -32, 44, -12, 23, 76, -41, 84, -31, -29, -59, 8, -64, -32, -49, 28, 24, -24, -34, -41, -13, -13, 13, -50, -80, 18, 41, -101, -48, 25, -68, -66, -5, 16, -35, -33, -58, 24, -28, -68, -55, 30, -35, 38, 3, -56, -54, -56, 81, 73, -67, 23, 8, -19, 43, 57, -17, -28, 49, 27, -6, -18, -26, -46, -30, 7, -91, -36, 33, -23, 96, -22, 43, -21, 11, -78, 16, 46, 1, 16, -101, 6, -60, 63, -30, -27, -11, 10, -3, -20, 52, -67, 44, -27, -12, 58, -57, 16, -46, -29, 28, -91, -29, 9, -32, -22, 47, 50, 30, -34, -27, 59, -46, -12, 24, -36, 12, 41, 41, -61, -63, 39, 19, -95, -32, -78, -13, -10, -29, -37, 65, 32, -44, 41, -49, 1, 27, -35, -33, 36, -22, -3, -20, -51, 26, -2, 8, -101, -3, -31, 60, -53, -61, 27, -13, -6, -9, -5, 12, -6, 11, -5, 17, -111, -42, 1, -40, 51, -45, -11, 19, -92, -20, 81, 21, -102, -23, 63, 36, 29, -42, -18, 31, -60, -54, 39, -66, 17, -4, -42, -13, -20, 38, -46, 52, -59, -66, 7, -40, 11, 7, 13, -101, 10, 39, -8, 26, 5, 5, 81, -37, 31, -26, 18, -23, 26, -71, -43, -5, 74, 83, 14, -13, 37, 25, 61, 88, 7, 45, -15, -3, 8, 14, 17, -43, 61, -6, 20, -39, -15, 29, -43, 76, -38, 37, -66, -80, 15, -6, 29, 24, -18, 2, 38, 48, 19, -84, 2, 87, -10, 19, 53, 35, 40, -48, -42, 52, 15, -24, -37, -10, 41, -6, 4, 32, 32, -5, -7, -24, -91, 51, 23, 22, -58, 50, 24, 2, 9, -10, -68, -34, -60, 43, -58, -74, 58, -68, 56, -90, 33, 47, -13, 73, 6, -43, 31, 20, 45, -37, 19, -58, -5, -54, -2, 35, 30, 10, -4, -32, 60, 23, -4, -26, -30, 22, -47, -78, -52, 20, -24, -43, 13, -105, -58, -94, -62, -65, 53, -90, -43, -6, 37, 16, -12, -23, 79, -8, -24, 12, 17, 12, -93, 65, -54, -6, -66, -11, -19, 36, 42, -2, -47, 12, 97, -50, 40, -86, 27, 14, -83, 27, -49, -40, 0, -8, -55, -60, -73, 35, 34, 6, -3, -15, 61, -68, 59, -25, -34, 51, 2, -6, -40, 22, -25, -64, 1, -67, -36, -33, 31, 25, -48, 6, 20, -33, -78, 48, -108, 0, 32, -41, 75, 27, 31, 12, -34, -50, -100, -9, -1, -56, -41, -38, 34, 21, -2, -95, -5, -29, -44, 3, -21, -51, -23, -16, -66, 76, -51, 37, 2, -38, -4, -33, 39, 13, -13, 11, -36, -34, 19, -10, 37, 27, 47, 10, 59, 15, -118, -75, 14, -14, 16, 15, -22, 30, -20, 51, 42, -63, -53, -20, 51, 17, 26, 35, -23, 31, 29, 31, -53, 61, -31, -74, 32, 29, -50, 40, -25, -37, -6, 57, -33, 27, 10, 33, -16, 5, -52, -13, 42, 36, 20, 47, 27, -30, 14, 36, 69, -33, -72, 1, -12, 22, -8, -80, -12, -22, -71, -70, -26, 98, -27, 24, -12, -14, -107, 9, -25, 14, -21, -77, 67, 76, 25, -25, -98, 30, -37, -16, -125, 33, 12, 10, -71, -63, -11, -49, -43, 0, 67, -13, 41, 33, 15, -58, -8, -43, 33, -42, -27, 87, 42, 15, 59, 59, 30, 32, 15, 54, 22, -7, 56, 44, -64, -31, 54, 21, -1, 23, 77, 27, 29, 9, 25, -4, 36, -97, 11, -13, -76, 52, 17, -25, 6, -68, 55, 25, 83, -23, -81, 22, -13, 49, 82, -31, -18, 17, 56, -65, 45, -45, 42, -28, 44, -41, 13, 97, -8, -1, 12, -4, 0, 82, 70, 13, -51, 83, 70, -50, -12, 26, -96, -14, 28, -69, -1, 43, -1, 13, 46, 53, 44, -39, -75, -28, 1, -25, 39, -49, 14, -73, 49, 21, 13, -38, -34, 47, -109, 10, -45, 34, 79, -74, 45, 60, 68, -55, -20, 34, -39, 22, -10, 54, 55, 30, -65, 16, -41, 15, 28, 6, -22, 36, -3, -35, 24, 49, 36, 61, -68, -87, -55, 38, -52, -57, -2, 6, -53, -11, -16, 12, 5, 4, 0, -15, 43, 49, 26, -21, -42, -13, 29, 71, -51, -40, -10, -87, -12, 5, -68, -29, -19, -75, -64, 23, 50, -48, -64, -27, 10, 73, -60, -32, 46, 1, -55, -23, -24, -39, 64, -53, 21, 44, -32, 64, -95, -66, 6, -55, 18, -18, 55, 61, -95, -50, -20, -59, -32, 61, 2, -15, -96, -14, 79, -21, 50, 8, 70, 12, -15, 29, -38, -37, 7, -23, -32, 5, -30, -7, 27, -26, -29, 4, -3, -13, -64, -22, 40, 40, -49, -3, -52, -37, -73, 60, 53, -9, 15, -66, -37, -33, 27, -13, 80, 29, 13, -52, -54, -91, -1, 37, 73, 52, 19, -59, 4, 79, 34, -28, -2, 20, 50, 21, 55, 83, -75, -23, 42, 29, -2, -44, -60, -24, -60, -119, -31, -45, -1, 10, -16, 27, 85, 33, -25, 70, -14, 4, -72, 26, 6, -20, 63, 34, 25, 9, -25, 4, 82, -35, 48, 32, 35, -44, -20, -26, -57, 11, 75, 45, -47, 22, 55, -33, -61, -67, 28, -82, 12, -47, -30, -69, -60, 33, 23, -65, 74, 57, 76, 0, 46, -5, 5, 49, -79, -18, -11, -12, 42, 13, 35, 13, 39, 58, 33, -18, -49, 19, 22, 7, -41, -53, -18, -4, -18, 73, -17, -59, 40, 8, -9, -8, 19, -58, 20, -37, 5, 23, 14, 52, 42, 68, 17, 21, -41, -20, -82, 20, -48, -11, -20, -21, -12, -63, 77, 50, 31, -54, 5, 39, 15, 31, -2, -60, -9, -20, 17, 15, -35, -85, 39, 37, -11, 41, -81, 46, -31, 78, -117, 38, -37, -37, -42, -76, -54, 30, -14, 49, 21, 51, 11, -74, 40, -34, -5, 22, -22, -26, -36, -38, -42, -39, 23, 39, 69, -47, -63, 59, 3, 60, -17, -6, -14, 18, -20, -37, -35, -42, 1, -4, 35, 3, -32, -54, 51, -6, -44, -54, 41, -50, -51, -20, 32, 39, -11, -34, 41, -53, -45, 6, 60, -56, 58, -22, 3, 52, -57, 11, 17, 15, 53, 56, -78, -16, -42, -21, -65, -44, -66, 90, -5, 43, -11, -15, 4, -69, -43, 45, -76, -72, 12, 20, 48, 17, -33, 31, 80, 14, 3, 61, -6, -63, 30, -58, 19, 1, -9, -27, -1, 71, 
  47, -3, 0, 50, 59, 52, 46, -46, 3, -17, 38, 54, 48, 6, 25, 24, 5, 49, -41, -81, -24, 23, 53, -51, 11, 5, 5, -47, -12, -1, 30, -32, 44, -64, -22, -43, 33, 42, -22, -53, -18, -13, -56, 7, 6, 4, 0, -2, 13, -10, -12, -70, -16, -6, 54, -50, -5, 27, 6, -6, -77, -81, -58, 71, -20, -69, -46, 24, 10, -32, -21, 64, -30, -21, -28, -47, -15, -69, -32, 30, 46, 17, 8, -5, -49, -19, -9, -9, 28, 14, -37, -91, -7, 41, -52, -35, -18, -43, 51, -51, -13, -42, -30, 30, 24, 58, -28, -37, -39, -49, 29, -73, -51, 54, 8, -31, 18, -13, 10, -47, -57, -4, -27, 28, -31, 62, 68, -23, 36, -26, 63, -70, 44, -61, 6, 10, -21, -31, -24, 45, -73, 3, 35, 28, -27, -47, 11, 6, 0, -81, -19, -86, -58, -14, -23, -37, 22, 11, -69, 22, -50, 70, -22, 50, -33, 21, -17, 38, -41, -68, -32, -65, -50, -24, -61, 10, 27, 20, -26, -90, 72, -56, -57, -12, -2, -35, -37, 24, 0, 39, 43, 21, 1, -23, 26, -38, -27, -57, -77, -32, -14, -53, -58, -42, -56, 80, 7, 11, -70, 26, 32, -72, 19, 17, 32, -4, -39, -53, 0, 15, 23, 53, -19, 15, 22, -38, 35, 59, -47, -62, 20, -28, -6, 24, 49, 43, 11, 25, 39, 40, -34, 41, 72, 19, -59, 39, -52, -43, -20, 14, -44, -88, -31, 24, -56, -12, -30, 29, -45, 3, 16, -32, -50, 23, -6, -14, -1, -31, -32, 58, -3, 74, 28, 53, -49, -54, -55, 37, -58, 18, -75, -24, -76, -35, -39, 30, -5, -45, -14, 50, -43, 21, -10, 61, -59, 23, 77, 7, -12, -13, 25, -4, -17, -53, 28, -33, 54, -46, -3, 0, 21, -47, -18, -75, 47, -48, -42, -66, 40, 14, -4, -3, 19, -74, -35, 76, -15, -62, -73, 29, 66, 53, -11, -9, -16, -29, 1, -87, 14, 29, 39, 40, 69, -49, 26, 54, -22, 27, -26, 74, 29, -45, -77, -46, -9, -53, -53, -82, 52, -10, 29, 35, 56, -2, 3, 15, 23, -49, 26, 74, 10, -25, 55, -18, 26, 24, -73, -7, -7, -92, -22, 7, 22, -44, 37, -49, -13, -61, -44, -4, -49, 20, 46, -31, -60, -21, -43, 32, -36, -62, 30, 44, -10, 34, 19, -57, -14, 83, -11, 57, 15, -72, 46, 48, -6, 10, 26, -85, -75, -56, -60, 40, -12, -76, -31, -11, -22, -45, 42, 10, -52, -50, 69, 20, -29, -25, -69, -18, 9, -6, -43, -30, -8, 37, 2, -50, 1, -52, 8, -68, -51, -66, -20, -2, -39, -26, -53, -40, -32, -59, -18, -36, -16, -52, 59, 1, -65, -3, -97, -5, -21, -13, -17, -9, -77, 12, 59, 43, 76, 13, -19, 52, -51, -83, -103, 33, 39, -68, -39, -80, -31, 33, -95, -65, 18, 46, 26, 85, -93, -62, 11, -51, -4, 58, 5, 26, -36, -10, -13, 33, -48, 39, -74, -54, -34, -41, 21, -20, -23, -27, 49, -11, 59, 65, -1, -59, 38, -32, -29, -74, -5, -7, 56, -49, 23, 20, 0, 39, -72, -82, -79, -41, -55, 15, 10, 5, -69, 53, -21, -51, 41, -18, -27, -10, -42, 23, -51, -78, 36, -63, -26, -13, 29, 66, 9, 56, 44, -83, 5, -42, 45, 2, 9, 51, -47, 56, 46, -35, 45, 9, 39, -3, -5, -13, 48, -58, -66, 30, 6, 18, 46, -79, 0, 50, -64, 57, -2, 38, -66, -56, -13, -68, 35, -11, -1, -1, -70, -47, -58, -81, -13, 76, 47, -12, 27, 16, -17, -20, -82, -45, -31, -56, -5, -80, 50, 9, -13, 51, -73, -32, 33, 57, 25, -45, -9, 74, 6, 4, -69, -43, 7, 27, -9, -87, -15, 47, -31, -24, -29, -52, -9, -60, -59, 17, 49, -50, 49, -46, -29, -60, 29, -52, -8, -115, 58, 70, -63, 11, 8, 28, 7, -12, -62, -56, -13, 45, 72, -29, 19, 72, -35, 1, 49, -48, 12, -75, 23, -33, -1, 5, -49, 47, -3, -9, 36, 48, -71, -31, 11, -75, 19, 39, 20, -59, -41, 18, -15, -37, -4, -20, -66, 4, 14, -44, 40, 36, -16, 36, -41, -61, 76, 31, 30, 22, 54, -6, -94, -17, -62, 36, -20, 40, 36, -29, 35, 11, 22, -66, 43, 49, -23, -38, 53, 43, 5, -35, 5, -66, 33, 28, -37, 28, 42, 8, -9, 28, -72, -59, -1, 57, -39, -10, 9, -54, -38, 21, 43, -24, -13, -30, 66, -14, 49, -6, 38, 22, 38, -25, -69, 17, 65, -8, -4, 5, -24, -94, -12, -50, 69, 28, -77, 51, 26, 58, -43, -9, -31, -48, -29, 45, -56, -76, -13, 8, -53, -33, 52, -52, 7, 15, -15, 16, 44, -21, -9, -59, 15, -2, 28, 2, 45, -33, -33, 63, 104, 47, -77, -94, -34, -25, -32, -5, -22, 35, -79, -58, 27, 20, 66, -65, -67, 31, -29, -66, -38, -73, 15, 10, -5, -54, -38, -6, 25, 58, -13, -35, -35, 47, 26, -63, -38, 31, 12, 47, -26, -12, -46, -28, 2, 47, 35, 16, -80, 4, 53, 69, -35, -32, -67, -50, 24, 14, -37, 81, 64, 20, -23, 26, 28, -33, 39, 62, 61, -20, -1, -10, -28, -20, 50, 53, 32, 10, 12, 4, -20, -28, 16, -29, 37, -51, -21, 7, -33, 2, -96, 51, 35, 9, 22, -3, 4, -9, 53, 35, 44, 5, -57, -23, 34, 45, -2, 0, -63, 50, 54, -53, -39, 29, -17, -30, -30, 17, 14, 45, -51, -26, -54, -26, -62, 54, -64, 44, -31, 33, 42, 9, 50, 47, -5, 57, -14, 30, -26, -6, -25, 1, -56, 16, 45, -97, 59, -42, 53, 5, -22, -6, -98, 9, -55, -32, -38, 16, -12, -54, 62, 63, 68, -23, 32, -54, -2, 50, 34, -21, 32, 44, 38, 68, -39, -67, 45, -12, -50, 37, -23, 45, -53, -56, -23, -20, -16, -53, -10, -17, -74, 34, -35, -42, 46, -46, -43, -23, 36, -49, -2, -2, -47, -6, 0, 4, 16, 54, 69, 47, -69, -11, 36, -60, -55, 64, -57, -21, 24, 30, 19, -6, 16, -45, -3, -78, 30, 49, -16, 57, -30, 31, 50, 18, 38, -3, -26, 42, 62, 16, -20, -72, 40, -44, 6, 38, -80, -47, 63, 41, -13, -60, -47, -51, 48, -44, 28, -12, 16, -62, -63, 28, 46, 39, -51, 83, -83, 8, -2, 18, 31, -10, 33, -15, -62, -60, 55, 1, -18, 18, 43, 4, -28, -22, -31, -54, 0, -78, 41, -11, 57, 44, -45, -56, 7, -8, -15, 52, 22, -7, 33, -11, -64, -44, 2, -67, -77, -57, 19, 14, 33, -49, 14, 54, 4, 54, 53, -28, -39, -34, 11, 30, 8, 13, -4, -55, 38, -16, 12, 55, 53, -3, -51, -13, 13, -34, -12, -44, -56, 6, -19, 46, -4, 1, 5, 27, -62, -4, 4, 26, 8, -69, -13, 66, 73, -67, -17, -15, 68, 65, 63, 21, -65, -32, 6, -27, -26, 10, -60, 33, 17, -13, -35, -64, 13, 21, 40, -32, 4, -74, 1, -39, -33, 42, -43, 41, -53, -77, -23, 1, -31, -12, -82, 31, -38, -76, 8, 40, 49, -52, 40, -109, 39, 43, 43, 7, -45, -19, -35, 25, -67, -50, 24, -75, 8, -69, -25, -4, -39, 26, -54, -15, -44, 12, 26, 31, 43, -5, 32, -35, -56, -70, -71, 53, -18, -11, -39, -50, 29, 43, 57, -2, -21, -46, 19, 69, -36, 72, 28, -9, -16, -59, -47, -47, -45, 37, 
  53, 27, 54, -1, -76, -19, 53, 24, 38, 49, 24, 20, 50, 74, -47, -65, 10, 51, 69, -26, -51, 79, -45, 18, 23, 58, 47, -59, 42, 11, 20, -2, 57, 34, -30, 63, -73, -18, -8, -27, -9, 15, -52, -27, -80, -24, 16, -91, 26, 92, -1, 77, 53, 77, 26, -49, 11, 38, 5, -53, 63, -35, -70, -20, 29, -68, -89, -46, 44, -47, -31, 93, -6, -44, 7, 18, 51, 29, -65, -49, 7, 28, 74, -53, 19, -27, -46, -62, 35, 47, 31, 27, -13, -56, -24, 27, -56, -27, 24, -20, -11, 37, -71, -13, -18, 17, -12, -53, -83, -1, 78, 12, 30, -41, -19, -26, -11, -45, -11, -41, 45, 32, -12, 83, -46, 11, -6, 2, -24, 13, 6, 22, 8, 56, 1, -3, -21, -17, -67, -43, -17, 3, -63, -16, -92, -29, 70, 32, -28, -19, 47, 46, 33, 6, -72, -13, 18, 39, -39, 49, -94, -33, 25, 8, -13, 36, 17, 61, 51, -65, -24, -41, 40, 25, -9, 60, -14, -45, -69, 40, 7, -12, 17, 69, -17, -10, -9, -42, 2, -29, 66, 11, -50, 15, -50, -5, 44, 49, -35, 7, 9, -8, -4, 11, 20, -76, -6, -40, 5, -53, 29, 22, 3, 35, 14, -55, 15, 59, -83, 120, -31, -59, 19, 22, 34, -2, -48, -44, 40, -13, -26, 25, -63, 3, -41, -31, -31, -17, 37, 60, 45, -2, 40, -91, -28, 41, -19, 60, 59, -37, 25, -42, -45, 6, 10, -14, -38, 2, 67, -27, 18, -27, 35, -78, -12, -72, -40, 46, 7, 34, -35, 18, 56, -57, -25, 57, 16, 4, -31, -48, 55, 62, 72, -9, -35, 5, 29, -30, -3, -44, 8, 42, 43, 25, -27, 41, -44, -38, 70, 51, -52, -12, 39, 41, 4, -43, -39, 69, -4, 20, -2, -39, 8, 70, 53, -41, 54, -29, 51, 17, 92, 23, 20, -21, -3, -54, 52, -43, 25, 39, 25, 3, 62, 25, -37, -43, -70, -11, 4, 24, 42, -48, -53, 81, 28, 51, 28, -3, 23, 65, -72, 1, 56, -23, -76, -23, -64, -34, 37, 41, 85, -35, 68, 35, 52, 11, -23, 65, -19, 70, -42, -36, 15, -18, -36, 22, 16, 50, 34, 18, -47, -12, -24, 42, 40, -2, 2, -66, 45, 11, 80, 20, -14, 7, 28, 7, 73, -29, -74, -45, -45, -74, 66, -69, 24, 5, -78, -52, -25, 45, -42, -6, 26, -60, 36, 14, -14, -52, 36, -11, 36, -59, 67, 97, -68, 65, -55, 58, -31, 6, -17, -30, -54, 70, 44, 14, -43, 64, 64, -11, 10, -79, -30, 25, -41, -43, -84, -60, -61, 45, -40, 95, 23, 0, 29, 35, 12, -60, 44, 23, 8, 15, 28, 55, -29, 21, -52, -12, -39, -81, 58, -94, 2, 2, -35, -70, -31, 97, -118, -31, -8, 18, -76, -76, -61, 2, 16, 12, -14, -3, -29, 35, 42, -24, -33, 51, 21, 15, 21, 16, 16, -18, -63, -40, 42, 50, 9, -11, 57, -16, 56, 33, 8, 37, -24, -45, -55, -42, -73, 40, 19, 20, -3, -1, 42, -27, -4, 4, 43, 43, -54, 28, -50, 40, -61, 42, 72, -52, -10, 54, 14, -58, 6, -27, 80, 43, 1, -56, 65, 10, -34, 76, 9, -8, 8, -5, -9, -46, 34, -24, -30, -6, 12, 69, -57, -34, -25, -55, -58, -58, 22, -86, 30, 14, 21, 5, 66, 28, -17, -23, -1, -15, -23, -33, 19, 67, -27, -32, -23, 1, 30, -15, -37, 33, 3, 36, 109, -9, 63, 65, 83, 78, -46, -47, 38, 6, 36, -57, 3, -59, 61, -22, 12, -54, -7, 28, 52, 60, 38, -67, 6, 19, 62, 50, 21, 16, -55, -27, 29, 19, 43, -54, -50, 26, 55, 16, -44, 54, 19, 47, 1, 21, 23, 10, 4, 66, -20, 42, -12, 4, 8, 33, 0, 12, -25, -1, 16, 21, 28, 11, 2, -14, -65, 27, -39, -37, 68, -54, 51, 29, -1, 15, -49, -23, -17, -30, 50, 23, -38, 3, 53, 25, -53, 36, 6, 71, -7, 32, 40, 42, -32, 6, 13, -91, 65, 61, 34, 19, -66, -8, -41, 30, -36, 12, 17, -60, 5, -8, -18, -16, 59, -30, -20, -117, -6, -1, 2, 32, 31, 26, 2, -75, 68, 17, -73, -10, -22, -47, 14, 11, -41, 4, -58, -60, -72, 50, -50, 17, -28, 29, 31, 51, 52, 5, 71, -27, 59, -20, 58, -32, 56, 61, -69, 63, 1, 62, 45, 24, -52, 0, -69, -4, -20, 46, -30, 15, 22, -34, -53, 17, 14, -40, 56, -32, 48, -35, 33, 25, 43, 7, -33, 12, -2, -27, -52, 64, -45, 11, -8, 57, 5, -18, 30, 21, -25, 21, 70, -17, -15, 34, 6, -10, -4, 10, -79, 22, 50, -101, -49, -19, 36, 68, -68, 13, 33, 34, -7, -17, -58, 30, 90, -54, 50, 33, 43, -23, -56, 27, -103, -51, 68, -32, 74, 11, -74, 53, 14, -57, 57, -42, 15, -58, -21, -3, 45, -18, 34, 69, -43, 34, 24, 37, -10, 52, -4, 48, -49, -6, 3, 92, 50, 9, 16, -71, -26, -60, -23, -10, -40, 91, -29, 60, 24, -48, -50, 60, -34, -60, -54, -39, 84, 26, 57, 33, 79, -68, 44, -38, -45, -21, 6, 36, 28, 54, 50, 40, 10, 39, -25, -46, 50, -56, 24, -26, -45, 39, 33, -14, -15, 54, 56, 49, -25, -28, -40, 35, -29, -31, -80, -18, -29, 2, -82, -3, 10, 53, 67, -20, -4, 37, -18, -101, 55, 82, 30, -22, 43, -10, 23, 33, 3, 2, -6, 33, -2, -36, 48, 16, 4, -16, -63, -44, 7, -44, -21, -30, -4, 68, -80, -61, -35, -15, -71, 44, -45, -15, 14, -53, 31, 62, 1, 6, -23, 63, 29, -13, 95, -24, -19, 18, -45, -45, -16, 7, -57, 13, 62, -8, 37, 0, 31, 51, -51, 85, 72, 31, 28, 44, -43, -11, -65, 28, -51, -17, -57, 34, -75, -44, -17, -87, 26, -24, -70, -1, -72, 67, 42, 5, 44, 54, 85, 28, -58, -61, 67, -40, 18, -34, 53, 1, -63, 28, -58, -15, 44, -14, -19, -19, -45, 36, -58, 38, 48, -23, 67, -92, -29, -16, 25, 10, -32, -1, 72, 22, 69, 38, -28, 24, 51, -53, -47, 42, 21, -59, -53, -52, 9, 10, 68, -85, 89, -1, 34, 80, -7, 36, 69, 92, -10, -38, 12, 16, -20, -39, -35, -12, -13, -55, 47, -45, -43, -26, 29, 65, -46, -12, -23, -9, -40, -83, 41, 43, -37, 61, -14, -38, -15, -45, -3, -1, -32, -1, 30, 45, 1, -54, 0, -52, -28, 33, 82, 8, -69, -34, -54, 19, 18, 26, -36, 58, -55, 3, -84, 90, -32, -18, 28, -33, -44, -1, -22, -17, 9, 88, -28, -10, 27, -57, 20, -64, 39, -57, 34, -44, -51, 22, -33, -23, 42, 19, 26, 22, 14, 56, -8, -81, 46, 59, 10, 55, -7, 24, -11, -51, 16, 46, 26, 43, -60, -91, 46, -25, 39, -53, -86, 45, -27, 53, 72, -105, -13, -57, 59, -96, 24, 31, 58, 30, 70, -26, -11, 46, -38, 59, -52, 34, 24, -54, -59, -66, -39, 45, -32, 54, 42, 21, 20, 10, 53, 35, 83, 1, -60, -34, -14, -28, -12, -9, -23, 36, -28, -8, -43, 101, -17, -16, 5, 37, 9, -66, 33, -1, -41, -36, 38, -7, -6, 5, -70, 39, 31, -51, 17, 16, -12, 4, 39, 52, 48, 58, 5, -11, 28, 9, 13, -3, -42, 100, 60, -3, 4, 72, -6, 104, 56, -82, -10, -9, -17, 7, 
  26, -43, 25, 13, -42, -54, -46, -69, 75, 43, -68, 12, 73, 21, -5, 21, -70, 23, 54, -36, -4, -6, -45, -14, 41, 27, 89, -41, 25, -47, 47, -23, 20, -16, -19, 56, -20, -9, 64, 38, -16, 38, -38, 40, -44, 41, -46, -20, 49, -24, 93, -41, 28, -30, -82, -5, 87, -51, -62, 35, -31, -40, -53, 14, -8, -43, 26, -5, 7, -31, 63, 50, -21, 10, -38, 56, 79, 26, 2, -48, -67, -18, 40, 53, -71, 2, 1, -71, 87, -2, 16, -63, 36, 68, 41, -1, -20, -49, 70, -72, -70, -44, 10, 3, -19, -16, -31, -48, -58, 33, 127, 84, -24, -64, -57, -33, -34, -81, -45, -92, 8, -50, -45, -34, -51, -4, -30, -22, -46, 68, 33, -59, -36, -18, 37, -33, -16, -23, 40, -67, -102, 57, 30, -7, 6, 103, 3, 61, 36, 36, -6, -36, -22, 26, -30, 39, 73, -42, -64, 15, 32, -20, -17, 71, 49, -74, 28, -50, 23, 11, 2, -19, -14, 76, 55, 60, -71, 66, 14, 111, 65, -36, -37, -50, 0, 28, 15, 58, -59, -43, -7, 42, -67, 73, -46, -18, -8, 25, -63, 37, -30, 30, -22, -9, -49, 20, -4, -22, -1, 46, -52, 54, -36, -17, -41, -21, 39, -5, -24, -14, 0, 8, 29, 76, -8, -29, -14, -58, -34, -11, 0, -93, -1, 34, -31, -19, 67, 64, -29, -25, -43, -21, 53, -63, 23, -62, -30, 40, 28, -20, -30, -75, -46, 37, -85, -18, 5, -96, -68, -94, 13, -22, 14, -51, 70, 63, -60, -48, -25, -60, -19, 63, 63, -49, 53, -44, 21, -17, 29, 40, -61, -21, -28, 18, 11, 37, -49, -43, 74, 39, -31, -59, -12, 24, -35, 56, -51, 24, 21, 30, -44, -53, -42, -12, -44, 62, 49, 1, -35, -48, -25, -44, -23, 69, 37, -35, -9, 5, 32, -70, 40, 36, 45, 60, -14, -7, -52, 11, 4, -67, -70, -64, 8, -14, -68, -7, -44, -80, 35, 2, -55, -42, 41, 2, -4, -57, 46, -65, -61, 74, -27, 41, 45, 60, -23, -13, 40, -15, 34, -54, 53, 44, -7, 69, -14, -29, 80, 24, -25, 48, 0, -5, -41, 58, 26, -16, 61, -1, -11, 9, -30, 54, 74, -34, -17, -62, 23, -34, -93, -29, -42, 20, -64, 72, 27, 98, 82, 47, -61, 51, 60, 48, -45, 87, 15, 6, -19, -48, -5, 3, -3, -26, 32, -8, 32, 23, 28, 44, 72, -41, -67, 80, 4, -22, -46, 29, 35, -54, 47, 62, -63, 38, 18, 34, 23, -10, 47, 35, 52, -28, 73, 70, -44, 100, 13, 60, -45, -3, 77, 24, -48, 53, -16, -35, -58, -6, 4, -31, -15, -37, 50, -3, -48, 31, 29, 11, -34, 36, 33, 12, -27, -5, 4, 16, -61, 75, 45, -8, -72, -6, -64, 37, 12, -27, -34, 5, -3, -20, -12, -30, 65, -40, -35, 48, -35, 26, -32, 84, 21, -27, 33, 88, -27, -45, 40, -47, -8, 8, 28, 58, 29, -29, -101, -24, 35, 21, -10, -48, -4, -67, -40, 34, -42, -10, 22, 1, 6, -37, 60, 73, 59, -19, 17, 10, 49, -27, 46, -71, -28, 69, -54, -42, 43, 66, 33, -11, -48, 18, 33, 24, 34, -73, 24, 9, 30, -69, 1, 21, -9, 1, -70, 32, 40, -11, -80, -20, -44, 58, -23, -63, 2, -46, 16, 75, 23, 19, 68, 85, -11, 28, 17, -71, 70, 46, -18, -63, 24, -3, -48, 73, 31, -2, 44, -48, -22, -3, 38, -36, -84, 31, -25, 99, -31, -88, 103, 13, 26, 27, -73, -24, 58, 31, 67, 80, 41, 85, 45, 75, 90, -4, 82, 58, -34, -24, -37, -17, 48, -37, 41, 78, 17, 124, -73, -47, -54, 47, 44, -54, 0, 39, -35, -75, -19, 43, -17, -18, 0, 39, 26, 52, 91, -25, 40, -12, -34, 16, 36, -85, 83, -19, 17, -61, 14, 98, 10, 35, -35, -26, -35, 44, -51, 63, 0, -6, -55, -24, -29, -65, -28, -36, -53, 8, 43, -5, 106, -65, -3, -32, 58, -35, 49, 15, 39, 17, -29, -48, -64, -51, 46, -32, 4, 59, 21, 0, 108, -23, -65, 74, -84, -12, 48, -40, -37, 76, -67, -34, -53, -6, -7, 44, 8, 90, -15, 32, 53, 104, 4, -9, -8, 37, -2, -64, -10, 34, 60, -21, -8, 0, -46, 50, -11, 73, 5, -7, 41, 2, 42, -80, -36, 21, -7, -76, -6, -42, 9, 70, -15, -94, 70, 83, -70, -15, -17, -37, -45, 68, -64, -93, 57, -42, -36, 4, 29, 29, 3, 66, -38, 12, 17, 6, -40, -7, 37, -66, -19, 42, 23, -4, -47, -37, 35, 53, -67, 33, 73, -54, 41, -56, 26, 11, 39, 69, 5, -44, -40, 8, -51, -87, 69, -64, 29, -29, 46, 68, 6, -36, -5, -10, 39, 56, -48, -22, -28, 6, 52, 1, -25, 65, 79, -60, 29, 12, 45, 1, 58, -27, -29, -40, 53, -73, 6, 11, 46, 18, 39, 20, -66, 40, 36, -50, 67, 36, -44, -64, -18, 47, -24, -2, -49, 85, -48, 30, -63, -4, 31, -45, 4, 94, -44, -31, -37, -17, 29, 82, 67, 9, -67, -22, 18, -52, -43, -17, -10, -17, 44, -42, -39, 55, 1, -58, -37, -72, 35, 13, 40, -44, -21, -62, -75, -41, -64, 10, 46, -27, 4, -44, 31, 43, 7, 44, 92, 14, 15, -11, -5, -21, 12, 47, 33, -22, 12, -41, 20, 52, 45, -54, -6, 55, -92, 26, 7, 22, -24, 27, 19, -4, -60, 29, -44, 83, -24, -55, 82, 0, -36, 45, 3, -34, 11, -50, 2, -57, 98, 30, 66, 5, -18, -26, -99, 41, 43, 72, 60, -14, 35, 36, -7, -16, -22, 31, -37, -67, 29, 61, -23, -60, 22, 16, 51, 39, -22, 56, 38, 6, -30, -63, 52, 52, 57, 11, -16, 45, 7, -4, 19, 22, 76, 41, -29, -68, 56, -5, -34, 73, 3, -12, -58, 29, -12, 42, 39, -60, -73, -74, 20, 4, 44, 10, -15, -26, 21, 36, 58, -57, 32, 0, -29, -56, 40, -30, -49, -58, 54, 61, 74, -59, 34, 4, -32, -3, -16, -53, 42, -35, -53, -68, 9, 44, 83, -5, 71, 55, -59, 31, 1, -45, 0, 63, 72, 7, -19, 52, -59, 26, -59, -22, -14, -18, -51, -20, 12, -25, 16, 37, -36, 49, -85, -45, 47, -56, 2, 52, -56, 34, -9, -24, -18, 20, 20, 47, -2, 16, 44, 24, 44, -65, 63, 6, 34, 20, -27, -18, 7, 14, 80, 18, -49, 32, 72, 51, -44, -65, 6, -5, 62, 2, -50, 35, -24, -32, -24, -32, 63, -44, -59, -51, 28, -58, 57, -73, 44, 6, -72, 43, -17, -12, 2, 6, 22, -32, 10, -38, 11, -27, -26, -13, 0, -72, 70, 31, 10, -19, -59, -3, 2, -76, 51, -38, -8, -55, 48, 30, 10, -50, 43, -66, -11, 4, 36, -43, -19, 49, -28, -57, 29, -80, -7, 58, 12, 21, -12, -67, 51, 38, 2, -64, -45, 25, 36, 1, 51, -59, -57, 35, 27, 54, 43, -11, -8, 0, -8, -76, -25, -15, -5, -41, 29, 55, -28, -3, 31, 48, 79, 44, 40, -33, -53, 21, -44, 4, -17, -17, 7, 21, -66, -82, -89, 38, -17, 21, 44, 29, 61, -28, -53, 31, -89, -55, -9, -76, 22, 27, -2, 35, -33, 27, -59, 21, 43, -18, -43, -32, 32, -47, 12, -16, -75, -10, 59, -15, -53, -69, 83, 44, 99, 4, 81, 51, -19, 30, 10, 45, 47, -27, 7, 31, 37, -14, -26, 64, 
  85, 11, 48, 52, 39, -9, -50, -62, 9, -17, -29, 29, 25, 65, 6, 60, -43, 62, 66, 7, 73, -31, -83, 45, -37, 55, 8, -26, 5, 1, -33, -57, 72, 55, 29, -8, -19, -1, -86, -7, -75, -11, 63, -23, -2, 31, 37, -58, 46, 90, 18, 54, -21, -40, -57, -78, 47, -13, 24, -27, 16, -74, -40, 82, 18, 57, 7, -39, 22, 1, -42, -75, 7, -55, -49, 33, 115, 44, 61, 22, 0, 53, 24, 44, 79, 26, -50, -6, -34, 5, 62, -32, 19, 74, 7, 60, -60, 61, 7, 21, 104, 39, -10, -55, 7, 31, 73, 51, 35, 94, 38, -19, -58, 37, 36, -15, 80, 39, 19, -21, -32, 43, 28, 50, 5, -59, -67, 80, 19, 38, -29, 21, 16, -19, -10, 7, 41, -26, 5, -50, 23, -7, 12, 28, -63, -44, 57, 66, 30, 38, 7, -29, -13, 57, -76, -33, -28, -36, 6, -62, 64, 28, -41, 51, -36, 47, 3, 11, 45, -66, 28, -40, 33, -26, -36, 42, 32, 18, -67, 31, 24, -25, -63, -27, 84, -11, 75, 1, -83, -86, 26, 21, 34, -5, 64, 16, -53, -20, -76, 41, -62, 10, -52, 67, -57, 39, -11, 37, -58, -50, 31, -31, 14, -30, -25, -37, 5, -15, -22, -84, 20, 31, 39, 12, 79, 19, -54, -43, -14, 64, 5, 64, -18, -18, 29, 10, -63, 58, 1, 87, -43, -46, -50, -4, 9, -29, -51, 41, 16, 28, -37, 45, -41, 57, -40, -50, -43, -18, 14, 45, -45, 59, 21, 35, 50, -33, -49, -50, 1, -24, -43, -20, -62, -44, 28, 21, 25, 46, -25, -36, 44, -13, 76, -70, 63, -56, -89, -18, 75, 24, -29, -51, 22, -11, -53, -17, 60, 43, -63, 49, 50, -80, -91, 6, -50, -14, 32, 2, 51, 36, -32, -16, -60, 42, 42, 71, 49, 43, 29, 43, 83, 0, -11, -34, -13, 71, -32, -29, 19, -52, 4, 26, -40, -59, -66, 44, 52, -56, 20, 22, -2, -10, 8, 84, -87, -49, 48, -37, 85, 31, 9, -7, 56, 47, -26, 9, 8, 19, -8, 4, 56, -74, 81, -42, 9, -25, -36, -43, -26, 55, 46, 25, -1, 62, -37, 40, -23, -64, -54, -6, -68, 104, 39, 6, -3, 51, -27, 50, -53, -58, 34, 30, -10, -28, -12, -19, 37, -5, 45, 80, -76, -6, 23, -13, 14, 49, -42, -34, 4, -26, 85, -25, -20, 12, -53, -47, -40, 65, -20, -76, 42, -57, 12, 32, -1, 25, 38, 49, 49, -50, 29, 59, 73, 30, 16, 99, -61, 39, 24, 10, -8, 41, -8, 112, 74, -24, 34, 44, -58, -53, 60, -24, -10, -44, -22, 40, -35, 46, -28, 21, 62, -59, 2, -23, -11, 75, -61, 28, 53, 18, 34, -22, 61, 67, -30, 35, -36, 38, 9, -14, 0, 6, 69, 48, -41, -29, -13, 51, -5, -19, -78, -45, 5, 8, 45, 52, 19, 29, 32, 73, -12, 23, 5, -25, 19, 71, -50, -24, 81, -38, -6, 13, -4, -36, 89, -50, 66, 16, -39, 18, -13, -34, -6, -8, 0, 81, 52, 44, 3, -69, -49, -46, 23, -64, 7, -12, 33, 44, -58, 25, 28, -83, -74, -8, 33, 8, 17, -24, -14, -42, 16, 59, 11, -1, 13, -24, -38, 73, -51, 26, -45, -62, 39, -30, -54, 79, -27, -46, 58, 84, 5, -33, -18, -13, -16, 64, -29, 0, 15, -70, -49, 46, -26, -51, 27, -1, -26, -68, -30, 54, 7, -52, 1, 76, 5, 17, -5, 36, 16, -71, -13, 60, 2, 10, 4, 8, 68, -74, -1, -15, 35, 22, 22, -35, 18, -37, -27, -23, 44, -63, 2, -6, -12, 51, 72, -55, 11, -13, -56, 46, -49, 15, -51, -11, -30, 36, 78, -28, -62, -11, -12, 5, -49, 2, 18, -39, 8, 97, -18, -34, 68, -18, 69, -41, 3, 21, -9, 49, -51, -46, 13, 74, -22, -90, 72, 33, -22, -3, -21, -9, -39, -51, 9, 45, -12, 30, 11, 55, -37, 108, -39, 37, 75, 45, -62, -25, -3, -31, -13, 45, -14, -19, 33, 73, 40, 25, 16, -68, -2, 9, -29, 60, 71, -6, 82, 52, 19, 33, -73, -25, -59, 29, -24, -26, -25, 32, 72, 49, 40, 9, -31, 1, -20, -11, -30, -5, -27, 53, 75, -44, 61, -53, 52, -33, 41, -9, -90, -70, -11, -8, -36, -66, 3, -29, -18, 52, -15, -56, 42, 20, 50, 1, 46, -28, -35, 24, -3, -20, -16, 69, 9, -24, -4, -46, 6, 44, -13, 37, 24, -29, -8, 37, -61, -35, 62, -26, 1, -82, -45, -58, -6, 12, -19, 64, 12, 21, 64, 34, 72, -63, -56, 103, 32, 1, -50, -33, -18, 11, 55, 46, -24, 24, 15, -37, -19, -36, -61, 48, -33, -7, -46, -34, -1, -46, 22, 21, -12, -18, 14, 63, -33, -22, -34, 28, 25, 25, -2, 67, 3, -12, 12, -11, -13, -78, -22, 12, 25, 27, 0, 38, -10, 62, -47, -65, 14, -9, 17, -21, -60, 8, -22, 1, 35, -22, -53, -21, 29, 50, 16, 12, -13, -40, 47, 37, -2, -39, -34, 76, -1, -50, 59, 29, -46, -39, 23, -56, 19, 63, -28, 55, -62, -14, 11, -76, -58, 91, -20, -24, -6, -14, 9, -31, 25, -64, -54, 61, -4, 38, 18, 5, -22, -44, -6, 0, -44, -47, -59, -13, 73, 13, -69, -32, -78, -95, -36, -27, -22, 19, -67, 32, -20, -63, -16, 79, -48, 43, -39, 37, 5, 10, -40, 31, 23, 61, 3, 14, 63, -36, 21, -25, 66, -6, 58, 33, -25, -45, -34, 15, 69, 56, 56, -1, 13, 101, -21, -56, 40, 63, 58, -53, 3, -8, -19, 41, -22, 31, 14, 23, 57, -63, -3, 1, -5, -33, -32, 30, -68, 19, -30, -37, 23, -40, -32, 32, 22, -70, 73, -60, 12, -12, 79, -4, -90, 8, -61, 30, 42, 73, 70, 0, 83, 21, 19, 40, 38, -5, -57, -71, 43, -47, 51, 12, -55, 21, 11, -25, 50, 30, -20, -47, 32, -71, -41, -21, -57, -74, -77, -37, 17, 76, 39, 20, 58, 36, -18, -25, 68, 59, 101, -10, -38, -46, 65, -37, 39, -43, 40, -18, -24, -27, -87, 7, 17, 66, 45, 52, -9, 38, 44, 63, -2, 30, 46, -66, 25, 50, 62, 16, 46, -47, 19, 56, -39, 15, -46, -50, -21, 50, -58, 56, -20, -81, -35, 34, 18, 42, -7, -45, 23, -117, -33, -39, -17, -37, -18, 23, -9, -38, 25, -13, -21, 73, -35, -82, -65, -11, 34, -73, -8, -67, 13, 43, 6, 1, -14, -11, 39, 61, -37, 42, 46, 0, -19, 35, 31, -34, -73, 50, 87, -52, -34, -39, 19, -69, 10, -3, 41, -13, 40, -11, -12, 32, 29, -17, 10, 4, -24, 74, 46, 20, 19, -29, 72, 76, -9, -2, 43, 47, 16, 15, 64, 5, -19, -48, 48, 34, 63, 55, -11, 72, 36, -41, -17, -17, 13, 57, 2, -21, 30, -30, -12, -3, -32, -15, 52, -56, 72, -55, -28, -6, 71, -44, -21, 26, -50, -32, -18, 29, 34, 14, -1, -52, -41, -47, 12, 28, 87, -75, -13, 85, -32, 28, -78, 60, 46, 26, 9, -12, 9, -17, 3, -45, -18, -27, -39, 58, -22, 2, -7, 17, 45, 12, -8, -73, 1, 41, -25, -57, 18, -35, 55, -54, -58, -55, 21, 22, -79, -27, -6, 13, -38, -27, -2, 68, 13, 59, -6, 16, -110, -113, 44, -54, 2, -70, -18, 55, -9, 69, -24, 14, 6, -23, -19, 76, 76, 12, -11, 60, 30, 42, 
};
const TfArray<2, int> tensor_dimension6 = { 2, { 8,1280 } };
const TfArray<1, float> quant6_scale = { 1, { 0.0010095128091052175, } };
const TfArray<1, int> quant6_zero = { 1, { 0 } };
const TfLiteAffineQuantization quant6 = { (TfLiteFloatArray*)&quant6_scale, (TfLiteIntArray*)&quant6_zero, 0 };
const MODEL_SECTION(EI_MODEL_SECTION) ALIGN(16) int32_t tensor_data7[1280] = { -1306, -235, -796, -896, -2678, -1069, -1845, -1460, -1267, -2415, -2253, -1096, -1949, 130, -1162, -1058, -546, -980, -1114, -1025, -1158, -1195, -1226, -462, -1604, -1458, -1079, -545, -1732, -2157, 87, -1824, -1217, -1189, -1184, -1671, -1008, -303, -446, -1285, -1458, -861, -2398, -2149, -678, -720, -817, -2077, -1746, -1458, -44, -1288, -1481, -1911, -1709, 102, 282, 374, -691, -811, -2605, -2461, -1194, -1529, -1632, -255, -1434, -1066, -444, -2587, -1870, -1751, -1178, -1602, 369, -342, -571, -141, -1099, -1226, -1971, -851, -383, -2359, -1346, -1570, -1738, -359, -741, -1070, -3157, -991, -637, -3152, -583, -290, -1889, -280, -609, -1759, -735, -1920, -1664, -973, -1896, -1156, -459, -263, -2387, -497, -624, -1645, -1305, -488, -1000, -544, -1615, -282, -1108, -1439, -584, -1383, -1511, -1063, -1867, -409, -1316, -714, -1998, -910, -2325, -1859, -1288, -1608, -2918, -813, -1414, -1300, -1483, -1324, -1801, -504, -157, -1672, -2861, -931, 319, -520, -279, -607, -922, -835, -1053, -2029, -1802, -1187, -868, -1629, -800, -1439, -2343, -2198, -675, -916, -1764, -2093, -1659, -120, -619, -2900, -988, -24, -2480, -1764, -1950, -525, -642, -2808, -1158, -367, -187, -186, -2305, -1151, -507, -773, -1036, -2193, -1914, -1006, -1646, -656, -1089, -1437, -717, -1418, 0, -1041, -2797, 161, -1406, 44, -837, -2653, 30, -1087, -1964, -473, -2477, -368, -2666, -2737, -1560, 32, -2576, -304, -2383, -450, -509, -2004, 47, -1387, -2800, -1624, -1501, -2502, -2193, 285, 301, -1827, -1808, -1965, -2586, -1300, -1109, -429, -1696, -688, -2133, 28, -2232, -1839, -1009, -605, -1655, -1855, -1182, -824, -276, 175, -815, -2723, -1449, -271, -1898, -739, -247, -2615, -1782, -1410, -2540, -1530, -568, 589, -468, -2226, -1884, 371, -1089, -327, -661, -1108, 1385, -3506, -1050, -499, 183, 287, -2570, 1378, 462, -22, -2307, -3376, -2720, -1352, -1710, -1287, -3157, -674, -1061, -588, 242, -1126, -966, -300, -1669, -192, -2313, -1469, 543, -1469, -1648, -1598, -250, -624, -1876, -942, -2714, -1683, -214, -1126, -1966, -442, -1151, -1127, 198, -1694, -1436, -1169, -2270, -419, -1443, 151, -1446, -1126, 16, -721, -3063, -997, -173, -819, -713, -906, -1572, -1535, -1497, -3312, -347, -754, -2252, -795, -2351, -1287, -1869, -2168, -1285, -1478, -554, -1093, 769, -1337, 127, -2112, -423, -1031, -1591, -601, -591, -1619, 4, -177, -1005, -1251, -1312, -1508, 167, -779, -1265, -1370, -1589, -2372, -3011, 486, -1874, 818, -822, -1340, -2380, -2013, -995, -878, -629, -782, -571, -1941, -850, -1725, -1148, -2057, -873, -69, -944, -1252, -280, -1934, -298, 840, -1145, -790, -1471, -1086, -393, -460, -1433, -1037, -2347, -1216, -1074, -613, -2402, -376, -674, -1402, -1596, -1363, -686, -821, -439, -1591, -2523, -3173, -1117, -715, -1670, -639, -3171, -1710, -1774, 122, -3503, -2413, -1561, -1882, 16, -1394, -217, 668, -1554, -2095, -1070, -257, -2431, -1320, -542, -713, -708, -1132, 1352, -413, -1529, -2554, -1868, -878, -722, -3209, -494, -1811, -468, -476, -412, -787, -2285, -806, -2029, -1120, -600, -1757, -1070, -1376, -198, -2077, -1166, -930, -3019, -360, -1807, -711, -1872, -705, -258, 200, -787, -69, -500, -1296, -1679, 120, -1096, -839, -1633, -297, -1603, -805, -1774, -2889, -985, -1384, -594, -585, -601, -429, -1597, -1514, -788, 246, -891, -614, -2448, -1629, -326, -779, -1069, -317, -2096, -650, -1525, -542, -435, -1770, -1100, -1189, 275, -270, -565, -1512, -64, -1457, -1396, -77, 642, -1029, -1101, -684, 105, -1549, -315, -2922, -1139, -2546, -808, -1569, -1776, -1248, -2128, -112, -530, -953, -1928, -436, -1241, 1219, 362, -1460, -1729, -1023, -1109, -772, -974, -975, -1617, 834, -697, -1278, -1813, -1520, -1156, -1962, -1278, 1117, -668, -1626, -2071, -1016, -1136, -1493, -225, -968, -1043, -1601, -1273, -2177, -823, -1411, -1445, -1822, -1251, -1455, -1552, -1520, -1675, -2190, -2352, -657, -1764, -2276, -1156, -792, -2309, -1129, -108, -1669, -1936, -1189, -1739, -1694, -1116, -163, -2677, -533, -888, 214, -2574, -1605, -1996, -901, -1958, -2896, -401, -1374, -1096, -854, -482, -684, -182, -2556, -2212, -807, -751, -461, -784, -1896, -1531, -604, -1657, -1341, -817, -210, -1232, -3350, -3036, -919, -1451, -4732, -1106, -1757, -955, -2511, -922, -1386, -571, -1308, -962, -511, -1832, -739, -911, -831, -1395, -230, -920, -1597, -873, -460, -780, -339, -1029, -1712, -2329, -189, -1805, -2052, -914, -1748, -1329, -1193, -1472, -146, -787, -1983, -1283, -1800, -2208, -1021, -1766, -1408, -2366, -2074, -697, -1318, -628, -2893, 60, -670, -296, -1414, -348, -845, -1398, -1442, -247, -304, -128, -1049, -2081, -3087, -1088, -625, -30, 341, -2915, -3576, -1371, -2334, -936, -648, -1916, -1289, -788, -574, -2753, -1175, -3871, -1228, -627, -921, -425, -1356, -1432, -1334, 149, -1455, -2210, -2228, -1022, 337, -2563, -743, -1373, -729, 591, -199, -388, -1310, 314, -694, -2375, -1956, -2263, 1117, -1442, -1361, -750, -1661, -496, -1532, 185, -488, -1900, 394, -1199, -550, -3437, -960, -142, -2073, -1395, -344, -1684, -820, 323, -493, -1328, -1370, 292, -949, 407, -386, -582, -376, -872, -1943, 69, -1304, -1127, -230, -1108, -2018, -794, -41, -2405, -502, -83, -627, -1021, -1672, -745, -1767, -661, -533, -524, -2433, -729, -2056, -338, -996, -1978, -254, -940, -990, 837, -651, -419, -891, -214, -921, -2331, -860, -1647, -1783, -233, -51, -928, -341, -713, 30, -2303, -1485, -721, -1514, -2179, -1527, 1204, -350, -679, -1514, -1922, -1109, -1566, -1270, -692, -828, -750, -3186, -433, 314, -1869, -346, 279, -615, -1283, -993, -1043, -1011, -3212, -1117, -351, 377, -1546, -564, -935, -2280, -1878, -2735, -109, -1132, -2737, -1897, -1724, -2371, -60, -754, -1148, -1931, -31, -1593, -1657, -3030, -1757, -1504, -894, -1765, -1250, -1161, -1291, 267, -1761, -2439, -1550, -84, -1079, -654, -1185, -721, -808, -680, -804, -2583, -2004, -611, -603, -1304, -670, -1135, -504, -1338, -1491, -2166, -1099, -257, -2210, -111, -2563, -867, -944, -1376, -1622, 1062, -1360, -1453, -1204, -1041, -1773, -1578, -214, -1365, -1253, -1189, -2062, -446, -506, -880, -1381, -663, -438, -1292, -2488, -1774, -963, -2377, -600, -2521, -3342, -469, -2339, -1843, -1639, -2222, -639, -1103, -1603, -1062, -437, -1080, -54, -9, -1748, -609, -1777, -184, -813, -1459, -2198, -84, -1637, -1225, -1650, 897, -857, -1350, -1476, -2783, -814, 461, -1247, -994, -1293, -1199, 62, -786, -1264, -1069, -1211, -1377, -2134, -1807, 514, 133, 1575, -413, -2031, -774, -3282, -2014, -1849, -317, 487, -632, -1130, -54, -2297, -862, -1515, -1288, -802, -1833, -187, -524, -348, -1214, -1187, -101, -1020, -2163, -4189, -322, 1126, 279, -1973, -246, 1611, -1565, -1212, -941, -2467, -729, 86, -1232, -442, -1393, -1238, -44, -826, -1323, -977, -694, -1052, -556, 4049, -1809, -447, -2352, -1281, -1527, -1653, -3046, -1522, -861, -1240, -157, -648, -628, -1019, -2449, -598, -719, -3241, -1972, -1082, -2760, -1698, -1257, -4385, -1805, -2497, -1545, -1576, -1379, -793, -2123, -2238, -525, -1544, -991, -1526, -1425, -1010, 1298, 425, -3402, -2809, -1004, -1547, -912, -2116, 188, -2040, -1205, -2131, -1461, -1814, 35, -1158, 929, -1177, -1976, -2161, -626, -627, -1385, -1229, 219, -348, 106, -544, -2106, -1667, -1410, -603, -924, -431, -1056, -1762, -1996, -1650, -1746, -337, -1098, 242, -2253, -995, -1578, -1699, -1128, -215, -1399, -2032, -1356, -682, -2389, -1093, -2005, -1983, -390, 564, -956, 255, -2925, -846, -816, -2079, -1743, -1669, -2013, -2042, -797, -289, -1947, -166, -652, -2883, -1201, -2353, -788, -2514, -614, -1755, -1219, -851, -879, -207, -337, -1722, -528, 406, -1705, -257, -1012, -1669, -1783, -732, 44, -341, -1039, -1443, -2002, -1156, -1654, -600, -2094, 1413, -1886, -1303, 115, -667, -2494, -446, -73, -2720, -288, -1711, -1144, -386, -1870, -1871, -1734, -1135, -1411, 286, -2263, -2011, -1215, -1684, -2124, 706, -3200, -734, -1301, -485, -1084, -706, -1961, -1838, -1442, -1195, -1359, -1125, -1353, -813, -1519, -438, -436, -1270, -1753, -2444, -2107, -2561, -747, -1954, -562, -1614, -1109, -356, -1873, -2733, -915, -2536, -601, -942, 261, 124, -1017, -986, -439, -63, -557, -873, -834, -3426, -1478, -2242, -1410, -599, -798, 784, 48, -1248, 111, -948, -2145, -758, -1403, -215, -1406, -561, -2058, -440, -431, -2327, -1767, -571, -2056, -2580, -2525, -1239, -1280, -427, -1659, -1162, -1938, };
const TfArray<1, int> tensor_dimension7 = { 1, { 1280 } };
const TfArray<1280, float> quant7_scale = { 1280, { 0.00017171830404549837, 0.00020085717551410198, 0.00016494959709234536, 0.00018081699090544134, 0.00018490510410629213, 0.00021190893312450498, 0.00018624294898472726, 0.00016538692580070347, 0.0001731411466607824, 0.0001844863872975111, 0.00022401531168725342, 0.00015859004633966833, 0.00018644814554136246, 0.00017317700257990509, 0.00017093286442104727, 0.00017498327360954136, 0.00021834038489032537, 0.00022453276324085891, 0.00019857090956065804, 0.00015429309860337526, 0.00026143991271965206, 0.00014290341641753912, 0.00016478191537316889, 0.00017223975737579167, 0.0001924169046105817, 0.00018026200996246189, 0.00024576301802881062, 0.00019185373093932867, 0.00022022782650310546, 0.00023953807249199599, 0.00019501126371324062, 0.00019456584414001554, 0.00020699613378383219, 0.00024988988297991455, 0.00022220183745957911, 0.00022391148377209902, 0.00016535520262550563, 0.00018995316349901259, 0.00017695395217742771, 0.0001922031951835379, 0.00019553664606064558, 0.0001652161154197529, 0.00017274594574701041, 0.00019379882724024355, 0.00019611800962593406, 0.00026900408556684852, 0.00019719745614565909, 0.00014775473391637206, 0.00022875709692016244, 0.00022552088194061071, 0.00015597154560964555, 0.00018516842101234943, 0.00018155133875552565, 0.00017062784172594547, 0.00016362361202482134, 0.00022524116502609104, 0.00020901908283121884, 0.00016892950225155801, 0.00020833977032452822, 0.00021733521134592593, 0.00014671690587420017, 0.00016182157560251653, 0.0002098918630508706, 0.00015903635357972234, 0.00023203747696243227, 0.00026406103279441595, 0.00017563454457558692, 0.00016529485583305359, 0.00019589992007240653, 0.00020602646691258997, 0.00019627159053925425, 0.0001927343982970342, 0.00015072576934471726, 0.00025157246273010969, 0.00021103234030306339, 0.00015931074449326843, 0.00017940091493073851, 0.00023813560255803168, 0.00019167090067639947, 0.00019716176029760391, 0.00014619519060943276, 0.0001601734256837517, 0.00017296824080403894, 0.00018944876501336694, 0.00023759104078635573, 0.00019085622625425458, 0.00017119545373134315, 0.00018988002557307482, 0.00016161377425305545, 0.00020825538376811892, 0.00016997200145851821, 0.00017191728693433106, 0.00023079267702996731, 0.00019385167979635298, 0.00017552143253851682, 0.00018357961380388588, 0.00019650434842333198, 0.00018850543710868806, 0.00023575479281134903, 0.00017531511548440903, 0.00021172971173655242, 0.00018544001795817167, 0.00017479364760220051, 0.00019077805336564779, 0.00016533663438167423, 0.00023725211212877184, 0.00026504413108341396, 0.00016495140152983367, 0.00019403081387281418, 0.00017685318016447127, 0.00018983097106683999, 0.00016707049508113414, 0.00022785665350966156, 0.00024878160911612213, 0.00025994886527769268, 0.00021643211948685348, 0.00017460620438214391, 0.00025183556135743856, 0.00019491802959237248, 0.00021234297310002148, 0.0001678283151704818, 0.00020936626242473722, 0.00023398980556521565, 0.00018174004799220711, 0.00022379435540642589, 0.00016294425586238503, 0.00017126511374954134, 0.00022066567908041179, 0.00015537551371380687, 0.00020264895283617079, 0.00018872933287639171, 0.00021893663506489247, 0.00018500020087230951, 0.00017403377569280565, 0.00019331052317284048, 0.00019799220899585634, 0.00023066133144311607, 0.00016965702525340021, 0.00019651489856187254, 0.00017809357086662203, 0.00022544567764271051, 0.00019727765175048262, 0.0001909961283672601, 0.00019844390044454485, 0.000158308757818304, 0.00018108663789462298, 0.00020886043785139918, 0.0002328916743863374, 0.00019230111502110958, 0.0002042588748736307, 0.00017224710609298199, 0.00016206824511755258, 0.00020580265845637769, 0.00020223819592501968, 0.00017656247655395418, 0.00021592920529656112, 0.00022041553165763617, 0.00018479634309187531, 0.0002157079434255138, 0.00022741603606846184, 0.00015093391994014382, 0.00018483838357497007, 0.00025360743165947497, 0.00019099893688689917, 0.00015546903887297958, 0.00021567624935414642, 0.00023851844889577478, 0.0001956700871232897, 0.00014035134518053383, 0.00017271432443521917, 0.00020491673785727471, 0.00019984458049293607, 0.00015880219871178269, 0.00025013295817188919, 0.00017984594160225242, 0.00017566862516105175, 0.00019663019338622689, 0.00021371935144998133, 0.00023225124459713697, 0.00018723218818195164, 0.00017520539404358715, 0.00029691640520468354, 0.00015335585339926183, 0.00017469846352469176, 0.0001764993357937783, 0.00016624861746095121, 0.00019888895621988922, 0.00017326853412669152, 0.00019321186118759215, 0.00016387662617489696, 0.00017594054224900901, 0.00017121838754974306, 0.00021591404220089316, 0.00017840249347500503, 0.00017472745093982667, 0.00020900937670376152, 0.00014477912918664515, 0.00019482364587020129, 0.00018264871323481202, 0.00025048205861821771, 0.00022532549337483943, 0.00016822869656607509, 0.00018679737695492804, 0.00021445524180307984, 0.00018803808779921383, 0.00018102482135873288, 0.00015165608783718199, 0.00018670517602004111, 0.0001951127196662128, 0.00022116153559181839, 0.00018661761714611202, 0.00013635431241709739, 0.00022061195340938866, 0.00018237486074212939, 0.00021083556930534542, 0.00024280473007820547, 0.0002306447277078405, 0.00021713902242481709, 0.00021773172193206847, 0.00016793105169199407, 0.00026376664754934609, 0.00024872389622032642, 0.00016145758854690939, 0.00018770503811538219, 0.00028178442153148353, 0.00021705096878577024, 0.00015852414071559906, 0.00022195257770363241, 0.00020488086738623679, 0.00022548969718627632, 0.00018361270485911518, 0.00024941188166849315, 0.00020565444719977677, 0.00015520901069976389, 0.0002428023872198537, 0.00022322400764096528, 0.00025060292682610452, 0.00026781699853017926, 0.00021853276120964438, 0.00018085309420712292, 0.00016641881666146219, 0.0001692177465884015, 0.00021320630912669003, 0.00024299115466419607, 0.00020443231915123761, 0.0001875757152447477, 0.00019033192074857652, 0.00024000341363716871, 0.00014446301793213934, 0.00027108291396871209, 0.00016457465244457126, 0.00014885289419908077, 0.00020452080934774131, 0.00019460704061202705, 0.00016910217527765781, 0.0001973754697246477, 0.00020694624981842935, 0.00019007881928700954, 0.00018462548905517906, 0.00020261552708689123, 0.00020002642122562975, 0.00019020744366571307, 0.00019810086814686656, 0.0001634092623135075, 0.00017558757099322975, 0.00014754415315110236, 0.00021614461729768664, 0.00024985737400129437, 0.00015461436123587191, 0.00023557330132462084, 0.00020465945999603719, 0.00019303106819279492, 0.00015522315516136587, 0.00019036250887438655, 0.00018910344806499779, 0.0001874621375463903, 0.00023853460152167827, 0.00018603571515996009, 0.00014191296941135079, 0.00018349866149947047, 0.00019619350496213883, 0.0002169508661609143, 0.00019892021373379976, 0.00016263413999695331, 0.00016369999502785504, 0.00019915861776098609, 0.00014949997421354055, 0.00020916025096084923, 0.00015859671111684293, 0.00017485460557509214, 0.00018927422934211791, 0.00014706142246723175, 0.00018436982645653188, 0.00020736857550218701, 0.00022723070287611336, 0.00017345907690469176, 0.00016464928921777755, 0.00017036560166161507, 0.00027167008374817669, 0.00020405602117534727, 0.00021369478781707585, 0.00017898590886034071, 0.00020715930440928787, 0.00020535524527076632, 0.00016242900164797902, 0.00018376040679868311, 0.00016496023454237729, 0.00017993936489801854, 0.00015417933173011988, 0.00017925807333085686, 0.00016788420907687396, 0.00018542325415182859, 0.00019370215886738151, 0.00022321230790112168, 0.00017882141401059926, 0.00019340381550136954, 0.00017116067465394735, 0.0001865971862571314, 0.00017865763220470399, 0.00030745042022317648, 0.00019617802172433585, 0.00018031358195003122, 0.00017445714911445975, 0.00019054560107178986, 0.00023788509133737534, 0.00016010276158340275, 0.00020837163901887834, 0.00021391747577581555, 0.00015612732386216521, 0.000352488859789446, 0.00020799832418560982, 0.00021777457732241601, 0.00020425634284038097, 0.00019771046936511993, 0.00017281019245274365, 0.00015583644562866539, 0.00022056390298530459, 0.00018605026707518846, 0.00021502914023585618, 0.00015803347923792899, 0.00020278077863622457, 0.00028699231916107237, 0.00017595684039406478, 0.00014951227058190852, 0.00015978520968928933, 0.00015276024350896478, 0.00019430964312050492, 0.00023335855803452432, 0.00021810083126183599, 0.00018619994807522744, 0.00019449993851594627, 0.00019106893159914762, 0.00031527018290944397, 0.00018150053801946342, 0.00020368045079521835, 0.00016569782746955752, 0.00018888288468588144, 0.00018064623873215169, 0.00017154561646748334, 0.0002250668330816552, 0.00017802027286961675, 0.00017336476594209671, 0.00020515240612439811, 0.00017038293299265206, 0.00028209792799316347, 0.00016347391647286713, 0.00016672474157530814, 0.00021144982019905001, 0.00015717378119006753, 0.00022564278333447874, 0.00016062665963545442, 0.00018928601639345288, 0.00018614617874845862, 0.00024285208201035857, 0.0001729692448861897, 0.00025152621674351394, 0.00022934064327273518, 0.00020449829753488302, 0.00016748929920140654, 0.00019625763525255024, 0.00022049415565561503, 0.00020943577692378312, 0.00020376360043883324, 0.00026948179583996534, 0.00020269780361559242, 0.00019895420700777322, 0.00030666033853776753, 0.00015871287905611098, 0.0002018570521613583, 0.00017074440256692469, 0.00019419471209403127, 0.00018583537894301116, 0.00023595558013767004, 0.00023398264602292329, 0.00014604954048991203, 0.00016846392827574164, 0.00020013921312056482, 0.00024760837550275028, 0.00018980899767484516, 0.00017078538076020777, 0.00022542115766555071, 0.00014438865764532238, 0.00019236636580899358, 0.00016403106565121561, 0.00017471509636379778, 0.0002349685673834756, 0.0001694147358648479, 0.00018217061005998403, 0.00021182348427828401, 0.00019547088595572859, 0.00016043067444115877, 0.00020664483599830419, 0.0001837750751292333, 0.00016638504166621715, 0.00019455917936284095, 0.00017631107766646892, 0.00016571255400776863, 0.00018823922437150031, 0.00024950018269009888, 0.00022478876053355634, 0.00016635119391139597, 0.00017398934869561344, 0.00017455589841119945, 0.00021926878252997994, 0.00016785733168944716, 0.00019449619867373258, 0.00017322412168141454, 0.00021294443286024034, 0.00016440091712865978, 0.00027157788281328976, 0.0001770255621522665, 0.00017447178834117949, 0.00017376297910232097, 0.00017064667190425098, 0.00019669807807076722, 0.00019694757065735757, 0.00016263122961390764, 0.00020579135161824524, 0.00018760646344162524, 0.0001664182054810226, 0.00018511034431867301, 0.00020798156037926674, 0.00017892225878313184, 0.00020404811948537827, 0.00019834990962408483, 0.00017717263835947961, 0.00016919718473218381, 0.00023572664940729737, 0.0001607159647392109, 0.00023912574397400022, 0.00016028797836042941, 0.00018105951312463731, 0.00017066573491320014, 0.00020797377510461956, 0.00022065236407797784, 0.00014856933557894081, 0.00019866706861648709, 0.00020446148118935525, 0.00016512880392838269, 0.00017183422460220754, 0.00029801815981045365, 0.00017294294957537204, 0.00018322239338885993, 0.00020923893316648901, 0.00020397623302415013, 0.00018193766300100833, 0.00018313151667825878, 0.00018903492309618741, 0.00020686980860773474, 0.0001664331357460469, 0.00023712063557468355, 0.0001595772773725912, 0.00029437456396408379, 0.00015923011233098805, 0.00018749863374978304, 0.00017071337788365781, 0.00018407608149573207, 0.00019876430451404303, 0.00016473540745209903, 0.00019494317530188709, 0.00020063261035829782, 0.00018234977324027568, 0.00013571194722317159, 0.00020219935686327517, 0.000238890788750723, 0.00021106837084516883, 0.00024021101125981659, 0.00021969695808365941, 0.00021643906075041741, 0.00023371874704025686, 0.0002384163235547021, 0.00021931494120508432, 0.00019261783745605499, 0.00020232812676113099, 0.00017468121950514615, 0.00016553407476749271, 0.00014190106594469398, 0.00018369589815847576, 0.00022169375733938068, 0.00015788761083967984, 0.00019580521620810032, 0.00017358871991746128, 0.00024391869374085218, 0.00023229781072586775, 0.00020571389177348465, 0.00017086835578083992, 0.00014194782124832273, 0.00022025269572623074, 0.00020353637228254229, 0.00018522552272770554, 0.00019485244411043823, 0.00016467610839754343, 0.00025311752688139677, 0.0001943847892107442, 0.00019484115182422101, 0.00019796696142293513, 0.00015540108142886311, 0.00019333425734657794, 0.00024852558271959424, 0.00017131879576481879, 0.00013585468695964664, 0.00017821326036937535, 0.00023537265951745212, 0.00018268816347699612, 0.00019662616250570863, 0.00017458910588175058, 0.00016214814968407154, 0.00020099018001928926, 0.00017113256035372615, 0.0002023649140028283, 0.00019953153969254345, 0.00029039534274488688, 0.00019232425256632268, 0.00015551612887065858, 0.00032472508610226214, 0.00021091997041366994, 0.00019145781698171049, 0.00018332822946831584, 0.00016256427625194192, 0.00017401645891368389, 0.00016541096556466073, 0.00013275857781991363, 0.00013595340715255588, 0.00020571333880070597, 0.00021269588614813983, 0.0002015712670981884, 0.00017724241479299963, 0.00015646281826775521, 0.00015790956967975944, 0.00017585250316187739, 0.000202377894311212, 0.00014688413648400456, 0.00015828997129574418, 0.00020047339785378426, 0.00019873231940437108, 0.00022710503253620118, 0.00017448440485168248, 0.00018552097026258707, 0.00021057267440482974, 0.00020905135897919536, 0.00022968499979469925, 0.0001881304633570835, 0.00019675401563290507, 0.00017647929780650884, 0.00016636404325254261, 0.00026357010938227177, 0.0001458719780202955, 0.00022467759845312685, 0.00020728196250274777, 0.0002071239723591134, 0.00024172454141080379, 0.00020590610802173615, 0.00015828614414203912, 0.00016809001681394875, 0.00016360773588530719, 0.0001558957010274753, 0.00020949974714312702, 0.00014561718853656203, 0.00021282712987158448, 0.00020322579075582325, 0.00023313258134294301, 0.00020166412286926061, 0.00025061023188754916, 0.00024967663921415806, 0.00021426312741823494, 0.00019039328617509454, 0.00029416184406727552, 0.00018235523020848632, 0.0001889633567770943, 0.00017696402210276574, 0.00019802435417659581, 0.0001927519915625453, 0.0001800713362172246, 0.00023884580878075212, 0.00019180559320375323, 0.00020864402176812291, 0.00016689141921233386, 0.00018682020890992135, 0.00020546359883155674, 0.00022823092876933515, 0.00016061037604231387, 0.00015826630988158286, 0.00016315333778038621, 0.00021507346536964178, 0.00017615039541851729, 0.00019136563059873879, 0.00020635355031117797, 0.00016591387975495309, 0.000197350382222794, 0.00023870052245911211, 0.00021988747175782919, 0.00024229350674431771, 0.00018843829457182437, 0.00017953038332052529, 0.00018959728186018765, 0.00012968911323696375, 0.00017449104052502662, 0.00018399313557893038, 0.00018187219393439591, 0.0001891940482892096, 0.00024013646179810166, 0.00016804844199214131, 0.00020514838979579508, 0.00020174830569885671, 0.00016595829220023006, 0.0001656345120863989, 0.00018725142581388354, 0.00022892442939337343, 0.0001754062541294843, 0.00017677129653748125, 0.00016593013424426317, 0.0001609836908755824, 0.00019415325368754566, 0.00017296952137257904, 0.00017179088899865746, 0.00021831042249687016, 0.00023396985488943756, 0.00014774824376218021, 0.00018202119099441916, 0.00015369537868537009, 0.00021985007333569229, 0.00019176815112587065, 0.00023767995298840106, 0.0001618156093172729, 0.00017703640332911164, 0.00017840065993368626, 0.00024635164299979806, 0.00018318257934879512, 0.00019557861378416419, 0.00018274167086929083, 0.00019295435049571097, 0.00017460848903283477, 0.00020803716324735433, 0.00022557609190698713, 0.00013256374222692102, 0.0001678863336564973, 0.00027570288511924446, 0.00018194607400801033, 0.00021455921523738652, 0.00014383594680111855, 0.00016576473717577755, 0.00017824393580667675, 0.00017054997442755848, 0.00017168780323117971, 0.00015694682952016592, 0.00015879416605457664, 0.000198277150047943, 0.00016513896116521209, 0.00017396404291503131, 0.00025438587181270123, 0.00017102735000662506, 0.00023927248548716307, 0.00022033948334865272, 0.0001901677023852244, 0.00018412902136333287, 0.00019639161473605782, 0.00026924454141408205, 0.00021646510867867619, 0.00017433348693884909, 0.0001849539257818833, 0.00016531723667867482, 0.00015446414181496948, 0.00016318565758410841, 0.00015624308434780687, 0.00017905219283420593, 0.00015734256885480136, 0.00020156687241978943, 0.00017469435988459736, 0.00016662053531035781, 0.00023458751093130559, 0.00016279966803267598, 0.0001610593608347699, 0.00020660946029238403, 0.00025752338115125895, 0.00022257404634729028, 0.00023784942459315062, 0.00022380310110747814, 0.00017944085993804038, 0.00016971597506199032, 0.00014944406575523317, 0.00027469030464999378, 0.0001954648905666545, 0.00019475705630611628, 0.00022294068185146898, 0.00020956654043402523, 0.00018052980885840952, 0.00019870391406584531, 0.00016243223217315972, 0.00026160059496760368, 0.00019697948300745338, 0.00016204665007535368, 0.00013602655963040888, 0.00018909892241936177, 0.00019019102910533547, 0.00023418250202666968, 0.00023798135225661099, 0.00018404866568744183, 0.00015784079732839018, 0.00021696806652471423, 0.00016710897034499794, 0.0001943249226314947, 0.00022953987354412675, 0.000177932990482077, 0.00020523318380583078, 0.0001959257060661912, 0.00017243878392037004, 0.00022180660744197667, 0.00018596903828438371, 0.00016990434960462153, 0.00017616410332266241, 0.00017255301645491272, 0.00018166714289691299, 0.00019767286721616983, 0.00015401204291265458, 0.00019599590450525284, 0.00019807819626294076, 0.00016970728756859899, 0.00018339400412514806, 0.00022018690651748329, 0.00018267286941409111, 0.00020126601157244295, 0.00022389479272533208, 0.00016735091048758477, 0.00018387647287454456, 0.00019180751405656338, 0.00016331420920323581, 0.00020636881527025253, 0.00017400828073732555, 0.00016343638708349317, 0.00021305833070073277, 0.00021235219901427627, 0.00017271263641305268, 0.00016232307825703174, 0.00019168491417076439, 0.00021512439707294106, 0.00021150807151570916, 0.00020341879280749708, 0.0001510943693574518, 0.00024159660097211599, 0.00016080927161965519, 0.00016539683565497398, 0.00022085232194513083, 0.00014282026677392423, 0.00021018799452576786, 0.00021088735957164317, 0.00018151123367715627, 0.00021486384503077716, 0.00017074061906896532, 0.00020162439614068717, 0.00022212485782802105, 0.00018972660473082215, 0.00019122491357848048, 0.00022790346702095121, 0.00016688354662619531, 0.000149978615809232, 0.00015950483793858439, 0.00026626870385371149, 0.00018105903291143477, 0.00024502215092070401, 0.00015246575640048832, 0.00022384714975487441, 0.00021477371046785265, 0.00021479872521013021, 0.00024896528339013457, 0.00020890090672764927, 0.00029021408408880234, 0.00021165663201827556, 0.0001789164962247014, 0.00019263660942669958, 0.0001683263253653422, 0.00019843025074806064, 0.0001876332244137302, 0.00023977486125659198, 0.00017457184731028974, 0.00020571021013893187, 0.00018660828936845064, 0.00018425563757773489, 0.00018241010548081249, 0.0001863702927948907, 0.00017298628517892212, 0.00017669179942458868, 0.00018346686556469649, 0.00018396596715319902, 0.00019784146570600569, 0.00020430618315003812, 0.00021871045464649796, 0.00016559945652261376, 0.00014816044131293893, 0.00016742685693316162, 0.00018056541739497334, 0.00023405965475831181, 0.00020386265532579273, 0.00018431400530971587, 0.00023237224377226084, 0.00016175075143110007, 0.00018158482271246612, 0.00016265641897916794, 0.00021920702420175076, 0.00014988642942626029, 0.00016768972272984684, 0.00025156480842269957, 0.00019510657875798643, 0.00020293031411711127, 0.00022216005891095847, 0.00021036424732301384, 0.00020941976981703192, 0.00015582004562020302, 0.00019018132297787815, 0.00019969117420259863, 0.0002595230471342802, 0.00015163156786002219, 0.00017144353478215635, 0.00014779841876588762, 0.00018575065769255161, 0.00020223059982527047, 0.00024803381529636681, 0.00022224061831366271, 0.00021491324878297746, 0.00015606069064233452, 0.00022125102987047285, 0.00023262576723936945, 0.00026826170505955815, 0.00021376812946982682, 0.00017512898193672299, 0.00022068587713874876, 0.0001501471851952374, 0.00014982813445385545, 0.00017857235798146576, 0.00023488250735681504, 0.00023072486510500312, 0.00018587324302643538, 0.00015084630285855383, 0.00018414741498418152, 0.00020972297352273017, 0.00015101845201570541, 0.00018056332191918045, 0.00018898314738180488, 0.00019704496662598103, 0.00024124739866238087, 0.00020458296057768166, 0.00019009869720321149, 0.00015514777624048293, 0.00020373972074594349, 0.00017989502521231771, 0.00024009664775803685, 0.00015117297880351543, 0.00020388036500662565, 0.00019700347911566496, 0.00016498073819093406, 0.00017902762920130044, 0.00023415106988977641, 0.00013152636529412121, 0.00015427263861056417, 0.00019582851382438093, 0.00017978392133954912, 0.00021345163986552507, 0.00017844466492533684, 0.00014972806093282998, 0.0002252936246804893, 0.00016089875134639442, 0.00023048445291351527, 0.0001661032292759046, 0.00018057100533042103, 0.00017206321354024112, 0.00031632592435926199, 0.00017716178263071924, 0.00014703741180710495, 0.0001414404105162248, 0.00014435524644795805, 0.00019514506857376546, 0.00024647958343848586, 0.00019794442050624639, 0.000210867467103526, 0.00014624185860157013, 0.00021442302386276424, 0.00016027817036956549, 0.00020190111536066979, 0.00021030650532338768, 0.00021732575260102749, 0.00020150867931079119, 0.00017234921688213944, 0.00022293305664788932, 0.00019999621144961566, 0.00020080155809409916, 0.0001904814998852089, 0.00017492090410087258, 0.00022490281844511628, 0.00019561719091143459, 0.00019794801482930779, 0.00017869743169285357, 0.00021901453146710992, 0.00026261081802658737, 0.00019193039042875171, 0.00015385766164399683, 0.00022742612054571509, 0.00022665437427349389, 0.00017938212840817869, 0.00020606578618753701, 0.00015739306400064379, 0.00019986128609161824, 0.00022081963834352791, 0.0002600632724352181, 0.00020313514687586576, 0.00017749660764820874, 0.00016972685989458114, 0.00017675335402600467, 0.00019012897973880172, 0.00017078840755857527, 0.00016578588110860437, 0.00017821237270254642, 0.00022983583039604127, 0.00020774763834197074, 0.00017470649618189782, 0.00022994961182121187, 0.00028101800126023591, 0.00019374518888071179, 0.00019771892402786762, 0.00016470057016704232, 0.00016461274935863912, 0.00018776528304442763, 0.00020004381076432765, 0.00024589739041402936, 0.00015785673167556524, 0.00019210451864637434, 0.00022196094505488873, 0.00024144510098267347, 0.00018137338338419795, 0.00018114315753336996, 0.0002142534067388624, 0.00018195215670857579, 0.00019615625205915421, 0.00017452237079851329, 0.0002054720971500501, 0.00019999394135084003, 0.0001794909912860021, 0.0002335690805921331, 0.00014923709386494011, 0.00023789303668309003, 0.00019191531464457512, 0.00021097558783367276, 0.0002095196396112442, 0.00024841900449246168, 0.00019901499035768211, 0.00019936481839977205, 0.0001875044108601287, 0.00015243759844452143, 0.00025613378966227174, 0.00022703642025589943, 0.00019269280892331153, 0.00014431164890993387, 0.00017850987205747515, 0.00016894334112294018, 0.0001963585673365742, 0.00014502152043860406, 0.00016511842841282487, 0.0001512954622739926, 0.00026243890170007944, 0.00014652078971266747, 0.00019570601580198854, 0.00024087198835331947, 0.00014309499238152057, 0.00017581450811121613, 0.00021582918998319656, 0.00022868765518069267, 0.00014241445751395077, 0.00019776981207542121, 0.00017597147962078452, 0.00016180465172510594, 0.00016748467169236392, 0.0002771557483356446, 0.00021654085139743984, 0.00023531282204203308, 0.00016051909187808633, 0.00018045326578430831, 0.00015776700456626713, 0.00014134071534499526, 0.00023861951194703579, 0.00015955253911670297, 0.0001932871964527294, 0.00020020161173306406, 0.00020316403242759407, 0.00026478347717784345, 0.00020657954155467451, 0.00018545176135376096, 0.0002464371791575104, 0.0001874800946097821, 0.00023028992291074246, 0.00024795476929284632, 0.00017572270007804036, 0.0001484268723288551, 0.00015925230400171131, 0.00020157897961325943, 0.00023952311312314123, 0.00022508771508000791, 0.00015716494817752391, 0.00017142198339570314, 0.00016174984921235591, 0.00017169934289995581, 0.00017002045933622867, 0.0001999567321036011, 0.00019314767268951982, 0.00017972962814383209, 0.00023217880516313016, 0.00019036610319744796, 0.00017681796452961862, 0.00016752607189118862, 0.00020925025455653667, 0.00018164445646107197, 0.00016224305727519095, 0.0001957322092493996, 0.00016388604126404971, 0.00020421513181645423, 0.00020998799300286919, 0.00016872734704520553, 0.00020426808623597026, 0.00021106725034769624, 0.00023159371630754322, 0.00017732284322846681, 0.00016699254047125578, 0.00019161995442118496, 0.0002123172307619825, 0.00018588961393106729, 0.00019390069064684212, 0.00023405604588333517, 0.00023748676176182926, 0.00018308080325368792, 0.0001866316597443074, 0.00022129876015242189, 0.00014932859630789608, 0.00018556739087216556, 0.00020586054597515613, 0.00022350445215124637, 0.00017461844254285097, 0.00020697762374766171, 0.00017376498726662248, 0.00027332134777680039, 0.00021476023539435118, 0.00019216601504012942, 0.00021222027135081589, 0.00020550335466396064, 0.0001615355140529573, 0.00018363572598900646, 0.00018020810966845602, 0.00018546315550338477, 0.00015676439215894789, 0.00016215919458772987, 0.00020375744497869164, 0.00019811821402981877, 0.00022139959037303925, 0.00017114623915404081, 0.00024224570370279253, 0.00017843805835582316, 0.00018742957036010921, 0.00020166857575532049, 0.00023098195379134268, 0.00023291680554393679, 0.00022161199012771249, 0.00019076290482189506, 0.00019861181499436498, 0.00017643989122007042, 0.00019166892161592841, 0.00022676162188872695, 0.0001708139170659706, 0.00017094805662054569, 0.00019422800687607378, 0.00022291448840405792, 0.00015682786761317402, 0.00021819653920829296, 0.00020428172138053924, 0.00017494546773377806, 0.00012478392454795539, 0.00018904889293480664, 0.00015658765914849937, 0.00014153415395412594, 0.00017457561625633389, 0.00018021637515630573, 0.00016004531062208116, 0.00018115280545316637, 0.00016720891289878637, 0.00021253654267638922, 0.0001682398869888857, 0.00022828149667475373, 0.00016173256153706461, 0.00023457106726709753, 0.00017859748913906515, 0.00017977038805838674, 0.00021027798356954008, 0.00015363513375632465, 0.00016893120482563972, 0.00016920940834097564, 0.00019523232185747474, 0.00024234967713709921, 0.00023327983217313886, 0.00016429438255727291, 0.00017505900177638978, 0.00017380286590196192, 0.00020531714835669845, 0.00026674149557948112, 0.00025619586813263595, 0.00020351189596112818, 0.00018934191029984504, 0.00020902424876112491, 0.00017095512885134667, 0.00023652783420402557, 0.00017848490097094327, 0.0001670003985054791, 0.0002008529263548553, 0.00019549955322872847, 0.00026415966567583382, 0.00017292222764808685, 0.00024233221483882517, 0.0002169679501093924, 0.00022087550314608961, 0.0002073350187856704, 0.00017028114234562963, 0.00018301936506759375, 0.00019626473658718169, 0.00025106119574047625, 0.00018734487821348011, 0.00020572578068822622, 0.00017617872799746692, 0.00018421368440613151, 0.00014950994227547199, 0.00018354119674768299, 0.00016857094306033105, 0.00025318469852209091, 0.00020121475972700864, 0.00022235266806092113, 0.00018190930131822824, 0.00019687712483573705, 0.00017405893595423549, 0.00017084996215999126, 0.00016670784680172801, 0.00021531661332119256, 0.00021815103536937386, 0.00019441923359408975, 0.00017061423568520695, 0.00023479829542338848, 0.0001979273947654292, 0.00024987343931570649, 0.00020138987747486681, 0.00019437876471783966, 0.00016335328109562397, 0.00022493932920042425, 0.00024683313677087426, 0.00018740621453616768, 0.00016043247887864709, 0.00017398378986399621, 0.00017172736988868564, 0.00016440368199255317, 0.00018142786575481296, 0.00016208131273742765, 0.00013134874461684376, 0.00017858472710940987, 0.00019379286095499992, 0.00022090734273660928, 0.0001704612368484959, 0.00021136239229235798, 0.00021334867051336914, 0.000148606370203197, 0.00018695827748160809, 0.0001954105100594461, 0.00019427634833846241, 0.00027254407177679241, 0.0001728748029563576, 0.00015384951257146895, 0.00020190462237223983, 0.00019846303621307015, 0.00016730579955037683, 0.00015632662689313293, 0.0001877546455943957, 0.00021793853375129402, 0.00021589957759715617, 0.00016920715279411525, 0.00017829754506237805, 0.00014874870248604566, 0.0001986612769542262, 0.00020830243011005223, 0.00019551884906832129, 0.0001710852375254035, 0.00015253605670295656, 0.00020453738397918642, 0.00019162212265655398, 0.00017837894847616553, 0.00018534742412157357, 0.0001402670459356159, 0.00018658215412870049, 0.00019898382015526295, 0.0001643349532969296, 0.00016503848019056022, 0.00022455024009104818, 0.00015766189608257264, 0.00016982525994535536, 0.00020800557103939354, 0.0001893556909635663, 0.00016056357708293945, 0.00024412067432422191, 0.00015164124488364905, 0.00015836312377359718, 0.00019585916015785187, 0.00018230307614430785, 0.00022785065812058747, 0.00024116455460898578, 0.0002408159343758598, 0.00014851571177132428, 0.00015290563169401139, 0.00016864021017681807, 0.0002059030084637925, 0.00020247908832971007, 0.00024201867927331477, 0.00025309112970717251, 0.0002020572719629854, 0.0001673541555646807, 0.00019584475376177579, 0.00016732169024180621, 0.00019278541731182486, 0.00014729269605595618, 0.0002101049612974748, 0.00018886102770920843, 0.00027146871434524655, 0.00013391610991675407, 0.00021314542391337454, 0.0001516784104751423, 0.00024857470998540521, 0.00017014853074215353, 0.00016832977416925132, 0.00015133290435187519, 0.00019862329645548016, 0.00019619401427917182, 0.00015300400264095515, 0.00018357639783062041, 0.00019400370365474373, 0.0001777550351107493, 0.00018166728841606528, 0.00013915718591306359, 0.00022001288016326725, 0.00021508603822439909, 0.00017496608779765666, 0.00019257712119724602, 0.00018956448184326291, 0.00018176913727074862, 0.00019940856145694852, 0.00021153929992578924, 0.00020076354849152267, 0.0001729663199512288, 0.00019405664352234453, 0.00017710762040223926, 0.00025781287695281208, 0.00020706540090031922, 0.00014941283734515309, 0.00022436415019910783, 0.00021010238560847938, 0.0002311857242602855, 0.00022280635312199593, 0.00020998161926399916, 0.00021131359972059727, 0.00023319781757891178, 0.00017635799304116517, 0.00019221240654587746, 0.00021493040549103171, } };
const TfArray<1280, int> quant7_zero = { 1280, { 0,0,0,0,0,0,0,0,0,0,0,0,0,0,0,0,0,0,0,0,0,0,0,0,0,0,0,0,0,0,0,0,0,0,0,0,0,0,0,0,0,0,0,0,0,0,0,0,0,0,0,0,0,0,0,0,0,0,0,0,0,0,0,0,0,0,0,0,0,0,0,0,0,0,0,0,0,0,0,0,0,0,0,0,0,0,0,0,0,0,0,0,0,0,0,0,0,0,0,0,0,0,0,0,0,0,0,0,0,0,0,0,0,0,0,0,0,0,0,0,0,0,0,0,0,0,0,0,0,0,0,0,0,0,0,0,0,0,0,0,0,0,0,0,0,0,0,0,0,0,0,0,0,0,0,0,0,0,0,0,0,0,0,0,0,0,0,0,0,0,0,0,0,0,0,0,0,0,0,0,0,0,0,0,0,0,0,0,0,0,0,0,0,0,0,0,0,0,0,0,0,0,0,0,0,0,0,0,0,0,0,0,0,0,0,0,0,0,0,0,0,0,0,0,0,0,0,0,0,0,0,0,0,0,0,0,0,0,0,0,0,0,0,0,0,0,0,0,0,0,0,0,0,0,0,0,0,0,0,0,0,0,0,0,0,0,0,0,0,0,0,0,0,0,0,0,0,0,0,0,0,0,0,0,0,0,0,0,0,0,0,0,0,0,0,0,0,0,0,0,0,0,0,0,0,0,0,0,0,0,0,0,0,0,0,0,0,0,0,0,0,0,0,0,0,0,0,0,0,0,0,0,0,0,0,0,0,0,0,0,0,0,0,0,0,0,0,0,0,0,0,0,0,0,0,0,0,0,0,0,0,0,0,0,0,0,0,0,0,0,0,0,0,0,0,0,0,0,0,0,0,0,0,0,0,0,0,0,0,0,0,0,0,0,0,0,0,0,0,0,0,0,0,0,0,0,0,0,0,0,0,0,0,0,0,0,0,0,0,0,0,0,0,0,0,0,0,0,0,0,0,0,0,0,0,0,0,0,0,0,0,0,0,0,0,0,0,0,0,0,0,0,0,0,0,0,0,0,0,0,0,0,0,0,0,0,0,0,0,0,0,0,0,0,0,0,0,0,0,0,0,0,0,0,0,0,0,0,0,0,0,0,0,0,0,0,0,0,0,0,0,0,0,0,0,0,0,0,0,0,0,0,0,0,0,0,0,0,0,0,0,0,0,0,0,0,0,0,0,0,0,0,0,0,0,0,0,0,0,0,0,0,0,0,0,0,0,0,0,0,0,0,0,0,0,0,0,0,0,0,0,0,0,0,0,0,0,0,0,0,0,0,0,0,0,0,0,0,0,0,0,0,0,0,0,0,0,0,0,0,0,0,0,0,0,0,0,0,0,0,0,0,0,0,0,0,0,0,0,0,0,0,0,0,0,0,0,0,0,0,0,0,0,0,0,0,0,0,0,0,0,0,0,0,0,0,0,0,0,0,0,0,0,0,0,0,0,0,0,0,0,0,0,0,0,0,0,0,0,0,0,0,0,0,0,0,0,0,0,0,0,0,0,0,0,0,0,0,0,0,0,0,0,0,0,0,0,0,0,0,0,0,0,0,0,0,0,0,0,0,0,0,0,0,0,0,0,0,0,0,0,0,0,0,0,0,0,0,0,0,0,0,0,0,0,0,0,0,0,0,0,0,0,0,0,0,0,0,0,0,0,0,0,0,0,0,0,0,0,0,0,0,0,0,0,0,0,0,0,0,0,0,0,0,0,0,0,0,0,0,0,0,0,0,0,0,0,0,0,0,0,0,0,0,0,0,0,0,0,0,0,0,0,0,0,0,0,0,0,0,0,0,0,0,0,0,0,0,0,0,0,0,0,0,0,0,0,0,0,0,0,0,0,0,0,0,0,0,0,0,0,0,0,0,0,0,0,0,0,0,0,0,0,0,0,0,0,0,0,0,0,0,0,0,0,0,0,0,0,0,0,0,0,0,0,0,0,0,0,0,0,0,0,0,0,0,0,0,0,0,0,0,0,0,0,0,0,0,0,0,0,0,0,0,0,0,0,0,0,0,0,0,0,0,0,0,0,0,0,0,0,0,0,0,0,0,0,0,0,0,0,0,0,0,0,0,0,0,0,0,0,0,0,0,0,0,0,0,0,0,0,0,0,0,0,0,0,0,0,0,0,0,0,0,0,0,0,0,0,0,0,0,0,0,0,0,0,0,0,0,0,0,0,0,0,0,0,0,0,0,0,0,0,0,0,0,0,0,0,0,0,0,0,0,0,0,0,0,0,0,0,0,0,0,0,0,0,0,0,0,0,0,0,0,0,0,0,0,0,0,0,0,0,0,0,0,0,0,0,0,0,0,0,0,0,0,0,0,0,0,0,0,0,0,0,0,0,0,0,0,0,0,0,0,0,0,0,0,0,0,0,0,0,0,0,0,0,0,0,0,0,0,0,0,0,0,0,0,0,0,0,0,0,0,0,0,0,0,0,0,0,0,0,0,0,0,0,0,0,0,0,0,0,0,0,0,0,0,0,0,0,0,0,0,0,0,0,0,0,0,0,0,0,0,0,0,0,0,0,0,0,0,0,0,0,0,0,0,0,0,0,0,0,0,0,0,0,0,0,0,0,0,0,0,0,0,0,0,0,0,0,0,0,0,0,0,0,0,0,0,0,0,0,0,0,0,0,0,0,0,0,0,0,0,0,0,0,0,0,0,0,0,0,0,0,0,0,0,0,0,0,0,0,0,0,0,0,0,0,0,0,0,0,0,0,0,0,0,0,0,0,0,0,0,0,0,0,0,0,0,0,0,0,0,0,0,0,0,0,0,0,0,0,0,0,0,0,0,0,0,0,0,0,0,0,0,0,0,0,0,0,0,0,0,0,0,0,0,0,0,0,0,0,0,0,0,0,0,0,0 } };
const TfLiteAffineQuantization quant7 = { (TfLiteFloatArray*)&quant7_scale, (TfLiteIntArray*)&quant7_zero, 0 };
const MODEL_SECTION(EI_MODEL_SECTION) ALIGN(16) int8_t tensor_data8[1280*1*1*32] = { 
  /* [0][0][][] */ 69,-46,-48,-34,-93,-40,90,112,19,108,78,-26,-16,11,33,21,22,-3,32,77,51,98,-16,35,-24,-36,-11,98,-30,93,-127,38, 
  /* [1][0][][] */ -22,50,5,127,-71,-40,3,23,5,56,-11,-29,-12,-38,-19,-48,-21,-1,23,-124,-23,-51,31,-34,-36,-57,34,67,-16,-44,17,-57, 
  /* [2][0][][] */ 49,-102,-76,-127,-3,97,-5,-35,-15,-15,62,-36,12,-98,-68,-73,-118,2,-29,121,-1,61,25,-58,42,49,-56,-5,-42,41,-43,123, 
  /* [3][0][][] */ 14,-39,43,-23,-41,-71,41,21,18,-117,-122,-15,-6,-58,-78,-65,37,-5,0,14,33,33,-12,-27,-12,32,-44,64,-65,64,127,-19, 
  /* [4][0][][] */ 113,35,-8,-36,-77,75,-48,-15,7,-1,20,-44,39,40,6,-64,56,54,23,21,50,27,3,-26,-127,-48,9,57,-30,123,28,-28, 
  /* [5][0][][] */ 45,25,-76,-20,-6,35,-1,18,-28,62,-127,-14,28,2,46,10,18,-19,-4,52,57,-40,5,-87,-23,-39,32,40,33,29,9,55, 
  /* [6][0][][] */ 39,-35,-81,-15,48,118,3,-94,-57,-77,-8,-89,-86,23,-127,-71,-50,54,24,77,20,0,18,63,-58,-19,11,-20,6,28,36,7, 
  /* [7][0][][] */ 53,-35,4,90,-99,34,-61,2,70,2,-78,122,-127,-46,10,-24,77,-55,-30,-45,58,6,-5,17,-35,59,-16,98,45,-4,91,-52, 
  /* [8][0][][] */ 43,-7,19,-31,-32,82,67,41,2,-65,41,-127,-17,-49,-57,-50,-91,-91,-91,34,92,70,79,-36,-10,-42,8,16,-34,-121,94,-4, 
  /* [9][0][][] */ -19,35,-111,-58,-64,-11,105,-127,-99,-39,37,-3,-1,-8,-10,-33,-38,-91,89,42,94,-20,-25,-64,-8,-18,-61,99,-2,55,16,7, 
  /* [10][0][][] */ -8,17,-112,26,55,9,6,-17,35,64,16,64,-23,25,24,-22,39,-42,31,-100,11,-39,-49,37,-34,38,-80,54,8,18,-127,-43, 
  /* [11][0][][] */ 28,51,77,7,-46,-28,106,-74,69,118,14,23,67,-5,20,-13,77,11,-118,15,127,-78,-35,2,57,101,-56,-13,56,-18,18,31, 
  /* [12][0][][] */ 85,-92,41,-46,-85,-22,78,-56,-4,36,-50,28,-49,47,-6,-41,-23,-127,-100,90,31,-5,-31,55,38,0,-38,41,8,46,21,-20, 
  /* [13][0][][] */ 23,95,-22,-104,78,127,24,-30,-24,-27,-20,-41,-26,124,3,-10,50,-52,9,35,55,-21,-29,-60,18,-12,-33,-80,26,-69,62,-105, 
  /* [14][0][][] */ 15,-35,44,-11,-74,61,-56,-77,-17,84,-28,127,-124,63,85,12,-39,9,-35,5,-16,123,56,0,-59,112,60,13,-32,-43,-3,46, 
  /* [15][0][][] */ -41,58,-10,-10,75,-4,0,-127,-25,-28,46,-7,12,-18,-26,16,3,34,80,40,40,60,-41,18,118,31,-62,-22,-74,-100,-27,-22, 
  /* [16][0][][] */ -9,-70,22,-33,31,-55,-127,-30,-52,70,36,-24,-29,-47,32,43,9,19,7,-52,-14,15,-68,-9,24,-49,-52,23,-45,78,-43,19, 
  /* [17][0][][] */ -32,9,-10,-61,-17,-4,9,39,12,-87,28,16,-32,44,31,-58,127,-9,-54,-15,-66,49,-16,-9,9,65,-50,32,57,1,18,-14, 
  /* [18][0][][] */ 29,25,-7,-28,59,40,-24,29,-46,47,-77,-55,-1,25,-11,-12,21,-32,7,14,-30,0,96,-4,-53,46,12,-38,125,4,31,127, 
  /* [19][0][][] */ -49,16,-83,91,-1,20,-9,106,5,8,37,-69,122,-73,5,-51,35,-60,-117,17,-127,-114,-31,15,52,-1,9,7,-78,-101,5,77, 
  /* [20][0][][] */ -15,-13,-1,-127,-40,59,-23,-21,44,23,31,11,43,-6,-24,42,42,-19,-11,-5,50,40,-64,30,35,-47,43,-2,-4,20,17,3, 
  /* [21][0][][] */ 77,69,-84,8,111,-81,63,23,-2,-100,127,-68,-49,92,-58,102,63,-88,-12,112,36,-108,-116,-9,-4,-39,-16,42,19,-109,-44,-37, 
  /* [22][0][][] */ -55,-10,-14,33,57,118,52,71,-10,-73,50,34,-20,7,39,27,-65,65,-75,-127,-58,31,54,-106,33,-60,65,117,-61,105,-56,-33, 
  /* [23][0][][] */ 117,19,127,-17,-60,-8,-68,-48,-83,6,-5,59,-61,45,-6,-95,12,-14,-34,-59,12,12,25,70,-19,-6,-83,9,-79,-4,39,-65, 
  /* [24][0][][] */ -48,87,15,-51,-4,-31,-85,-127,21,25,60,-23,7,38,30,3,-104,-37,-36,48,63,85,8,6,30,-8,-69,-37,22,65,-15,2, 
